0.010066320188343525
-0.011037272401154041
0.008470864035189152
-0.03933597356081009
0.04509545490145683
0.01211477816104889
0.008488975465297699
0.06898624449968338
0.02296154759824276
0.018109502270817757
0.04622668772935867
-0.016592510044574738
0.019347209483385086
0.04739942401647568
-0.00926657859236002
0.06330212950706482
0.032295722514390945
0.05025731399655342
-0.0059374370612204075
0.017430447041988373
-0.03678794577717781
0.07881757616996765
-0.015563665889203548
-0.012330921366810799
-0.017474273219704628
0.020859453827142715
-0.028731046244502068
-0.006976115982979536
0.022820452228188515
-0.008379482664167881
0.002962731057778001
0.04274050146341324
-0.020005768164992332
0.01586862839758396
-0.038193512707948685
0.07736751437187195
0.047711871564388275
0.05472758784890175
-0.03390515223145485
0.0019435895374044776
0.0654040202498436
-0.026726458221673965
0.0007675724918954074
-0.006220867857336998
0.03512008488178253
0.08026178181171417
0.00864157360047102
-0.040775999426841736
0.041170064359903336
-0.018968231976032257
-0.04746818169951439
0.007433650083839893
0.06647226214408875
-0.04782252013683319
-0.029490860179066658
-0.06116398423910141
-0.03540489077568054
0.015574803575873375
-0.049697063863277435
-0.014620755799114704
0.02591436356306076
0.0027403959538787603
0.00250428868457675
-0.002501638140529394
