-0.02872287668287754
0.03225571662187576
0.0395313985645771
0.0243512075394392
-0.047732189297676086
0.09445378929376602
0.014458755031228065
0.0043506920337677
-0.06102699413895607
0.06349966675043106
-0.00489741051569581
-0.07838515192270279
-0.09639912843704224
-0.009979816153645515
0.01109636202454567
0.08786217123270035
0.17295150458812714
0.08351846039295197
-0.04328537732362747
-0.07477365434169769
0.06883779168128967
0.05006547272205353
0.14941903948783875
0.09256801009178162
-0.057924285531044006
0.010977433994412422
0.05196576192975044
0.04081550985574722
0.0644785612821579
0.007550154346972704
0.014004811644554138
-0.06458674371242523
0.03100515902042389
0.008028188720345497
-0.017368512228131294
-0.06568703055381775
-0.036531973630189896
0.07018034160137177
0.023506013676524162
0.035119637846946716
0.035623203963041306
-0.0004064967215526849
-0.010862288065254688
0.032322585582733154
0.059175729751586914
0.002454328816384077
0.03607063740491867
0.10959659516811371
0.02436261996626854
0.007141991518437862
-0.07398317754268646
0.015732621774077415
-0.03962676599621773
-0.0034824146423488855
-0.04208669438958168
0.014129246585071087
0.0021173201967030764
0.009043093770742416
0.0819859653711319
-0.07197631150484085
-0.03196139633655548
-0.0872814953327179
0.027190379798412323
-0.014247498475015163
0.039019037038087845
0.17470265924930573
-0.04002416506409645
0.00905611738562584
0.00798130501061678
0.03027782402932644
0.02177378162741661
0.13086089491844177
0.11138374358415604
-0.07605957984924316
0.0016672128112986684
0.008107457309961319
0.05352124199271202
-0.13546158373355865
0.04123684763908386
-0.02004958502948284
-0.05926143378019333
0.012076739221811295
-0.006125906016677618
0.015127521008253098
-0.06952705979347229
-0.14340031147003174
0.009519090875983238
0.036159612238407135
0.011651663109660149
0.0244448184967041
-0.021925657987594604
0.007204688154160976
0.033074572682380676
-0.017090102657675743
0.021636586636304855
0.011629164218902588
-0.02998514287173748
-0.031601421535015106
0.014819162897765636
-0.029717687517404556
0.023463524878025055
-0.0015747497091069818
-0.032535143196582794
0.053530171513557434
0.02679608389735222
-0.03789392486214638
0.021064594388008118
-0.008761503733694553
0.057780373841524124
0.01088207121938467
0.009060301817953587
0.047996360808610916
0.020929917693138123
-0.06140993535518646
-0.006513096857815981
0.1035543829202652
0.17283861339092255
0.12686176598072052
0.02963501773774624
-0.13529063761234283
-0.17047050595283508
-0.03951345756649971
-0.042749255895614624
-0.0916438102722168
-0.006616054568439722
0.054161105304956436
-0.06493829190731049
-0.011638441123068333
0.003235855605453253
-0.13176186382770538
-0.15657296776771545
-0.1990075707435608
-0.05389048904180527
-0.013725817203521729
0.004299309104681015
-0.0037553217262029648
-0.046542689204216
-0.050174131989479065
-0.062402959913015366
-0.020535588264465332
0.052829381078481674
-0.0825224444270134
-0.0748247504234314
-0.08101969957351685
-0.04165538772940636
0.046403951942920685
0.060304395854473114
0.019699223339557648
0.013081390410661697
0.12616202235221863
-0.0831606388092041
-0.0396270826458931
-0.05890456959605217
0.08703411370515823
-0.05515749752521515
0.07040873914957047
0.05470028892159462
-0.11478856205940247
-0.05216061323881149
-0.06590203940868378
0.010418319143354893
0.058516763150691986
-0.0011206958442926407
0.11598775535821915
0.12373844534158707
0.11301761865615845
0.06774867326021194
0.1814572513103485
-0.12275945395231247
-0.01012964453548193
-0.06540475785732269
-0.0709795281291008
-0.012717298232018948
-0.043661296367645264
-0.09011584520339966
-0.15945948660373688
-0.06712822616100311
0.12619121372699738
-0.07954905927181244
-0.06011875346302986
0.009229185059666634
-0.12490464746952057
0.0136680593714118
0.07914017885923386
0.07547269761562347
0.11298296600580215
-0.3173556625843048
-0.11712008714675903
-0.053140848875045776
0.031164323911070824
0.050290871411561966
0.001183836255222559
-0.04974278435111046
0.02796083875000477
0.0012986877700313926
-0.06997575610876083
0.06654587388038635
0.07882634550333023
0.10218644887208939
0.09047259390354156
0.04662790894508362
0.06572838127613068
0.052137501537799835
0.057649727910757065
-0.12296219170093536
-0.06253255158662796
0.01818794384598732
0.04822322353720665
0.030558312311768532
0.0740077868103981
-0.022321147844195366
-0.06710413098335266
-0.07954633235931396
0.0029549021273851395
0.040972400456666946
0.07325222343206406
-0.05447322502732277
0.0052329194732010365
-0.11192043870687485
-0.09018505364656448
0.026513544842600822
-0.06948695331811905
-0.13628225028514862
-0.070047527551651
0.05100053548812866
0.01645786501467228
0.011929109692573547
-0.060130055993795395
0.025609884411096573
-0.05358158051967621
-0.0401957705616951
-0.08079018443822861
0.023082612082362175
-0.02883175201714039
-0.03119567781686783
-0.0554937906563282
-0.07330749183893204
-0.027232101187109947
0.1340247541666031
0.053729087114334106
-0.0878363847732544
-0.06744731962680817
-0.010993045754730701
0.08759309351444244
0.119788259267807
0.02430807426571846
0.05301661044359207
-0.08198973536491394
0.024833157658576965
-0.08541391044855118
-0.014648654498159885
-0.05073637142777443
0.06124654412269592
-0.03043876215815544
-0.09063582122325897
-0.07537554949522018
-0.15393340587615967
-0.03690334036946297
-0.10580939054489136
0.047830577939748764
-0.03083236888051033
0.14502163231372833
-0.10279452055692673
-0.12736019492149353
0.0011480313260108232
0.0035611512139439583
0.04922368749976158
0.10254610329866409
0.14367173612117767
-0.0032117213122546673
0.03334613889455795
0.011816904880106449
0.1286608725786209
0.012458770535886288
0.08888280391693115
-0.050908684730529785
0.13112659752368927
0.0592181459069252
0.01181991957128048
-0.009071115404367447
0.04045208916068077
-0.04957420378923416
0.08597049117088318
0.07092326879501343
0.010088028386235237
0.045536257326602936
-0.07920515537261963
0.06267241388559341
0.15167249739170074
0.11116884648799896
0.03315913304686546
-0.02759554609656334
0.006145958323031664
-3.054125409107655e-05
0.012115055695176125
-0.03027462773025036
0.025866713374853134
0.03831988200545311
-0.03283364325761795
-0.005953849758952856
-0.06638844311237335
0.017456166446208954
0.026840247213840485
0.035761259496212006
0.014237252064049244
0.042102180421352386
-0.02213115431368351
0.025370927527546883
0.06610766053199768
0.017021209001541138
0.02478254958987236
0.014873509295284748
0.10799206048250198
0.041226569563150406
0.021304935216903687
0.01262411568313837
0.026379447430372238
-0.09980016946792603
-0.07499019056558609
0.08585366606712341
-0.052725207060575485
-0.007779440376907587
0.002176053589209914
-0.06366536766290665
-0.0916457325220108
-0.054991066455841064
0.011288424022495747
0.03965575248003006
-0.03261873871088028
-0.028639424592256546
-0.003652005922049284
0.05493845418095589
-0.034254290163517
0.025648459792137146
-0.002842359710484743
-0.0034208064898848534
0.07734365016222
0.045635733753442764
-0.009649276733398438
0.028310969471931458
0.06378059834241867
0.11353851109743118
0.027511771768331528
0.0026219631545245647
-0.024791477248072624
-0.013696613721549511
-0.03667526692152023
-0.044895414263010025
0.025907110422849655
-0.008540463633835316
0.011738796718418598
-0.07420197874307632
0.012612867169082165
-0.0020937221124768257
0.009773267433047295
-0.004765328951179981
0.009095857851207256
0.09907644987106323
0.059545669704675674
0.041913073509931564
0.06132901459932327
0.01595311053097248
-0.09690235555171967
-0.04078609496355057
0.09048597514629364
0.07736639678478241
-0.02273622713983059
-0.011489931493997574
0.03437130153179169
-0.011349351145327091
0.018784523010253906
-0.046895094215869904
0.02455992065370083
-0.08338082581758499
-0.03524819761514664
0.013982290402054787
0.01023311261087656
-0.035533465445041656
-0.06282839924097061
-0.01896575465798378
0.028667300939559937
-0.11458399891853333
0.009263779036700726
-0.06639240682125092
0.07344045490026474
-0.0002926784800365567
0.046666763722896576
0.02545606531202793
-0.02468687854707241
-0.019230248406529427
0.07225216925144196
0.03328040987253189
0.05674276873469353
0.01230781152844429
0.07648123055696487
-0.04883461073040962
-0.03701484203338623
-0.09871312230825424
0.014688028022646904
-0.02723688632249832
-0.018511850386857986
0.043593816459178925
0.018027914687991142
0.04281708970665932
0.004691039677709341
0.05409080162644386
0.09656490385532379
0.027970485389232635
-0.009613271802663803
0.029579516500234604
0.09707508236169815
-0.10045172274112701
0.025386741384863853
0.01631975919008255
-0.12109600752592087
-0.21278126537799835
0.006535710766911507
-0.11740117520093918
-0.13456659018993378
-0.17050763964653015
0.008305000141263008
-0.1539781093597412
-0.017633209004998207
0.07669725269079208
0.2087949961423874
-0.0009507000795565546
0.09623393416404724
0.009898431599140167
0.03363613039255142
-0.06092709302902222
0.06419844925403595
0.11158193647861481
0.052723467350006104
0.03260311484336853
0.18211548030376434
0.07280785590410233
0.05794152617454529
0.015171688050031662
-0.10589586198329926
-0.08539590984582901
-0.02150651440024376
0.017136840149760246
0.03173349052667618
-0.015635419636964798
-0.002059831051155925
-0.012554164044559002
0.012708352878689766
0.02434949018061161
-0.02186424285173416
-0.12497420608997345
-0.21794432401657104
-0.09779348969459534
0.03761208802461624
0.0058392989449203014
0.056945011019706726
-0.029310017824172974
-0.13280540704727173
-0.1693917214870453
0.015627851709723473
0.158218115568161
0.11681021749973297
0.08154961466789246
-0.013688786886632442
-0.09379883110523224
0.009040907956659794
0.06362240761518478
0.1561298966407776
0.17441709339618683
0.002121490892022848
0.006656926590949297
0.08101927489042282
0.05596424639225006
-0.032710961997509
0.06787658482789993
-0.06486654281616211
0.019877467304468155
-0.022751962766051292
0.04252752661705017
0.0023621227592229843
-0.06509993970394135
-0.010708599351346493
-0.04873734712600708
0.01172756776213646
0.04028197005391121
0.005437031388282776
0.012217425741255283
0.011866376735270023
-0.10023103654384613
-0.04496663808822632
0.01390430424362421
0.006635959260165691
-0.020992601290345192
0.0165546964854002
-0.027746859937906265
-0.09587708860635757
-0.15285654366016388
-0.10494834929704666
-0.00901210680603981
0.01453263871371746
0.056369516998529434
0.06358436495065689
0.09411153197288513
0.03873156011104584
0.019250955432653427
0.040053777396678925
0.05474084988236427
0.06913723051548004
0.03308626636862755
0.041429609060287476
0.03508285805583
0.1458582878112793
-0.04006488248705864
-0.03316512331366539
-0.06762807816267014
-0.11677683889865875
-0.03986101225018501
-0.12399513274431229
-0.17693135142326355
-0.026645435020327568
-0.1406094878911972
-0.05123697593808174
0.08470938354730606
0.009537143632769585
0.02088885009288788
0.05976102501153946
0.013624184764921665
0.032761555165052414
0.020551985129714012
0.031057002022862434
0.13909092545509338
0.0354301854968071
0.013404740020632744
0.13830476999282837
0.02838488481938839
0.11479052156209946
0.1397865265607834
-0.10229547321796417
-0.07904339581727982
0.0036060642451047897
0.05020473524928093
0.029577190056443214
0.028512276709079742
0.0849127396941185
0.07119125127792358
0.058088771998882294
0.051394421607255936
0.001051708939485252
-0.1548430174589157
-0.157125324010849
0.05729867145419121
0.1523393839597702
0.11427003890275955
0.002320585772395134
-0.01145217102020979
-0.14568006992340088
-0.08788599818944931
0.08092813938856125
0.14955192804336548
0.06902813911437988
0.0012551879044622183
-0.06677692383527756
-0.10976611077785492
-0.01038400735706091
0.09436623007059097
0.025078393518924713
-0.10719715058803558
-0.0694630965590477
0.04130171611905098
0.044747497886419296
0.04808277264237404
0.0026797682512551546
0.04630059003829956
-0.01339909341186285
0.011696072295308113
0.007119149435311556
0.05820372700691223
0.01809856668114662
-0.0194848719984293
-0.024274619296193123
-0.051153864711523056
0.006452251225709915
0.032798293977975845
0.013320239260792732
-0.023506592959165573
0.024557311087846756
-0.0061857011169195175
0.012062212452292442
-0.027316831052303314
0.02867269702255726
-0.022865166887640953
0.05880378931760788
-0.06464602053165436
-0.0991869568824768
-0.014657453633844852
0.002119172364473343
0.05175577849149704
0.08138774335384369
-0.03096715547144413
0.003795832861214876
-0.01806127093732357
-0.039336275309324265
0.03955890238285065
-0.011343213729560375
0.06275887042284012
0.07535189390182495
0.11243125796318054
0.0329219326376915
0.0219088364392519
0.049037400633096695
-0.17274999618530273
0.06861001998186111
0.16394643485546112
0.005417774897068739
-0.09630686789751053
-0.04661289229989052
0.08658044785261154
-0.22532843053340912
0.08220963180065155
0.09354284405708313
-0.19939623773097992
-0.11301519721746445
0.0035362630151212215
0.032285600900650024
0.013708297163248062
-0.04201335087418556
-0.033988725394010544
0.014793997630476952
-0.043108850717544556
0.04679802432656288
0.12340003997087479
0.01205213088542223
-0.12038668990135193
-0.005998325068503618
0.07763870060443878
0.12356393784284592
0.19819577038288116
0.02617684192955494
0.009395798668265343
0.03837241977453232
0.03815736994147301
0.019912298768758774
-0.036969177424907684
-0.013082745485007763
0.01746150106191635
0.02285076305270195
-0.010718037374317646
0.036431070417165756
0.05039278045296669
-0.04114373028278351
-0.018177231773734093
-0.01211649551987648
0.06124965474009514
-0.0881488174200058
-0.02466588467359543
-0.022975264117121696
0.0002008016308536753
-0.07446573674678802
0.03186575695872307
0.030931442975997925
-0.023367540910840034
0.0038742744363844395
-0.0689876526594162
0.0014012933243066072
0.061812736093997955
0.01601443812251091
0.06873179972171783
0.04570641368627548
-0.10911063104867935
0.04271398112177849
0.01011558435857296
-0.008583403192460537
-0.010773488320410252
0.048637524247169495
-0.02854057587683201
0.034147389233112335
0.05297306552529335
-0.03258503973484039
0.005717517342418432
0.02983867935836315
0.030180761590600014
0.0023019597865641117
0.01596727967262268
-0.04350573197007179
0.03450684994459152
0.017148228362202644
0.02957870066165924
0.0563821867108345
-0.0051868148148059845
-0.028267638757824898
0.005527239292860031
-0.06379055976867676
0.020926987752318382
-0.029346555471420288
0.023600898683071136
-0.0010019807377830148
0.04671564698219299
0.022873928770422935
-0.026318907737731934
-0.009778671897947788
-0.02312544547021389
0.013553553260862827
0.03269588202238083
0.06445272266864777
0.04924813657999039
-0.07859630137681961
0.016562437638640404
0.03860393539071083
-0.06585764139890671
0.05441795662045479
-0.009480228647589684
0.01847003772854805
-0.1277722716331482
-0.1171848252415657
0.005183462053537369
0.05181197077035904
-0.02289700321853161
0.05641406774520874
0.0028584275860339403
-0.04763593152165413
0.04488641768693924
-0.010211575776338577
0.009890805929899216
-0.05992945283651352
-0.009474351070821285
-0.013303624466061592
-0.05557044595479965
0.08204798400402069
0.00553687522187829
0.056625980883836746
0.04607387259602547
-0.047880109399557114
0.02872205339372158
-0.04809541627764702
-0.00023645101464353502
0.048455506563186646
0.06913267821073532
0.062278930097818375
0.08481011539697647
0.1298402100801468
-0.027560224756598473
0.04956704005599022
-0.006659106817096472
0.008247939869761467
-0.013974545523524284
-0.049616530537605286
0.03605767711997032
-0.05727043375372887
-0.021833062171936035
0.033902887254953384
0.0629662275314331
-0.13706080615520477
0.011342212557792664
-0.05776899680495262
-0.014745330438017845
-0.10387284308671951
-0.0014966265298426151
0.008776543661952019
0.048338115215301514
-0.006171883549541235
0.047123536467552185
0.022703001275658607
0.024782199412584305
0.08440450578927994
0.0016823206096887589
-0.026211649179458618
-0.1623626947402954
0.12591411173343658
0.047178227454423904
0.0581674687564373
0.0300263874232769
0.030992919579148293
0.08096037805080414
0.016236167401075363
0.02328800968825817
-0.0638764426112175
-0.026515059173107147
-0.022976059466600418
0.01640964299440384
0.014875139109790325
0.0855732336640358
-0.012096671387553215
-0.003089458215981722
0.10863800346851349
0.06441657245159149
-0.004074444994330406
-0.08600522577762604
-0.04365892335772514
-0.10717950761318207
-0.12635204195976257
-0.05104215443134308
0.003966803662478924
-0.013168775476515293
-0.002942746039479971
0.035804372280836105
0.04611403867602348
-0.01815589889883995
-0.05408187210559845
-0.04658935219049454
0.03366062417626381
0.10044439882040024
0.037430401891469955
0.0014804757665842772
-0.0064362394623458385
-0.008215757086873055
-0.07226373255252838
-0.10254369676113129
0.11313441395759583
0.020437652245163918
-0.13344602286815643
-0.022103436291217804
0.09098586440086365
-0.027133002877235413
-0.08209430426359177
0.045166704803705215
0.07816030085086823
-0.10973883420228958
0.06210345774888992
0.004210290033370256
-0.07755633443593979
0.04507994279265404
0.04036417976021767
-0.026777923107147217
-0.003799049649387598
-0.03639637306332588
-0.04738583788275719
0.013352325186133385
0.040391094982624054
0.04821467027068138
0.016297893598675728
-0.05158441141247749
-0.09424819052219391
0.02395642362535
0.00851394422352314
0.0005845837877131999
-0.010853239335119724
-0.04806913062930107
-0.03925161063671112
-0.04456312954425812
-0.019330907613039017
-0.012004481628537178
-0.06345842778682709
0.01162406150251627
0.005428965203464031
-0.030476925894618034
0.026586994528770447
0.03331867232918739
-0.029414856806397438
-0.08854836225509644
-0.03376910090446472
0.018261965364217758
-0.023198848590254784
0.04090658947825432
-0.01609976962208748
0.02848513238132
-0.020009776577353477
0.11066215485334396
0.028847873210906982
-0.08895328640937805
0.007424067240208387
0.03971467167139053
0.03408389911055565
-0.06111733242869377
0.09398110210895538
0.06819919496774673
-0.027842022478580475
0.011561481282114983
-0.036498695611953735
-0.00262678530998528
0.026988528668880463
0.056499674916267395
0.0795484185218811
0.018302345648407936
-0.03065582551062107
-0.011378858238458633
0.05968861281871796
0.0002185579651268199
-0.005800474435091019
0.012772942893207073
0.03187226876616478
-0.023579362779855728
0.043433576822280884
0.07576699554920197
-0.0005703243659809232
0.0323321707546711
0.06473344564437866
-0.04763676971197128
-0.06014611944556236
-0.07427632808685303
0.03268200904130936
-0.044851724058389664
-0.01036218460649252
-0.046888671815395355
-0.020937573164701462
-0.04382641240954399
-0.032856106758117676
0.07942186295986176
-0.05842312052845955
-0.08737042546272278
-0.09808050841093063
-0.0903623178601265
0.03726951777935028
-0.046094879508018494
-0.018556831404566765
-0.040914613753557205
0.06559861451387405
0.19328878819942474
0.09865232557058334
-0.07592958211898804
-0.011000686325132847
0.06158813461661339
-0.012013953179121017
-0.04210546985268593
0.07433531433343887
0.09023599326610565
0.03253014758229256
0.009952646680176258
0.05164572596549988
-0.07785866409540176
-0.1170634999871254
-0.008820418268442154
0.01627385802567005
0.061923444271087646
0.0937633067369461
0.16457033157348633
0.13196974992752075
-0.0662371814250946
-0.11360586434602737
-0.06675444543361664
-0.005317456088960171
0.024302246049046516
0.11787045747041702
-0.025152290239930153
-0.03940699249505997
-0.0023522598203271627
-0.08154747635126114
0.02772245556116104
-0.015572969801723957
0.027094081044197083
0.01403787825256586
0.0402703694999218
0.0038612177595496178
0.11216944456100464
0.059158939868211746
0.06691700220108032
-0.1192343607544899
0.01872493140399456
0.1132962703704834
0.14660070836544037
0.016680477187037468
0.06663156300783157
-0.02141651138663292
0.10068397223949432
-0.03831193968653679
0.09133588522672653
0.06347322463989258
0.10363326221704483
-0.011084381490945816
-0.07380596548318863
0.04247472435235977
0.07769513875246048
-0.0032029326539486647
0.0669306218624115
0.08688537031412125
-0.07456845790147781
-0.06597978621721268
0.04430960863828659
-0.056141164153814316
-0.06691573560237885
0.08190339803695679
0.04784942418336868
-0.02446766011416912
0.07144984602928162
0.17112675309181213
0.047155626118183136
-0.05228479579091072
-0.12463989108800888
0.04653628170490265
0.04429003223776817
-0.0027397016528993845
0.10997989773750305
0.0148020563647151
0.0250282920897007
0.005105930380523205
-0.04488271102309227
-0.07031957060098648
-0.030019644647836685
-0.01901661790907383
-0.034794896841049194
-0.016998790204524994
-0.025931337848305702
-0.050773631781339645
-0.02472418174147606
0.019096193835139275
0.08577730506658554
-0.005725841503590345
-0.09861989319324493
-0.056174296885728836
0.015539508312940598
-0.05599187687039375
-0.05951688811182976
-0.015384870581328869
-0.01620226725935936
0.05623416602611542
0.05428970605134964
0.07177680730819702
-0.06831350922584534
3.165562520734966e-05
0.05506120249629021
-0.015935994684696198
0.004704928025603294
0.01740408129990101
0.10735088586807251
-0.017948122695088387
-0.00831684935837984
0.03138512000441551
0.00740805733948946
-0.07279171049594879
-0.013656697236001492
-0.03409426659345627
0.02551378309726715
-0.027644356712698936
0.13078466057777405
-0.0217484962195158
-0.03820868954062462
-0.029556995257735252
-0.0956106185913086
-0.06895700842142105
-0.0657259076833725
-0.03684518113732338
0.008318918757140636
-0.02311660163104534
-0.06323226541280746
-0.06041604280471802
-0.0686032846570015
0.023885473608970642
0.018537022173404694
-0.018163369968533516
-0.0707477480173111
0.10455658286809921
0.09033257514238358
-0.021228943020105362
0.032519686967134476
-0.07231158018112183
0.03987649455666542
0.04276850074529648
0.09941452741622925
0.009646874852478504
-0.0670497789978981
0.047178640961647034
0.005246567074209452
0.02895996905863285
-0.0510685108602047
-0.15604375302791595
-0.028424832969903946
0.03476119041442871
0.03287208452820778
-0.0073366290889680386
-0.03237757086753845
-0.183579683303833
-0.23689386248588562
-0.015932146459817886
0.062374915927648544
-0.03692343458533287
-0.06322730332612991
0.0323229543864727
0.025688402354717255
-0.11495456099510193
-0.036799415946006775
-0.05307110399007797
-0.024777133017778397
0.05184852331876755
-0.016139280050992966
0.04124961048364639
-0.06016991659998894
-0.010474290698766708
-0.009895522147417068
-0.057167910039424896
0.09866581112146378
-0.027045102789998055
0.012018470093607903
0.0710783526301384
0.007086774334311485
0.007771396078169346
0.03298987075686455
-0.018906326964497566
-0.029672399163246155
-0.04012355953454971
0.00011370917491149157
0.022277986630797386
0.013974573463201523
-0.007427246309816837
0.04021712392568588
0.01103202160447836
-0.001330252387560904
-0.05370042473077774
-0.044594038277864456
-0.05481996014714241
-0.0671720951795578
-0.007224801927804947
0.014187192544341087
0.007057929411530495
-0.020676251500844955
-0.0296027809381485
0.07853995263576508
0.0597865991294384
0.0027068506460636854
0.030695179477334023
-0.0008676609140820801
0.011888304725289345
-0.02687627077102661
-0.03888166323304176
-0.02684462070465088
0.04793853312730789
0.004861184395849705
-0.03550092875957489
-0.0011360910721123219
-0.008177279494702816
-0.021233858540654182
0.05400428548455238
0.10989027470350266
-0.03271397575736046
0.009614205919206142
-0.04418491572141647
-0.03026592917740345
-0.0510430671274662
-0.03745996579527855
-0.0003208104462828487
-0.04353081062436104
-0.00043079626630060375
0.037562545388936996
0.05138011649250984
-0.03384391963481903
0.08241240680217743
-0.05782751366496086
-0.0310467928647995
-0.016685830429196358
0.025105584412813187
-0.002086573513224721
0.06630440056324005
0.05855069309473038
-0.04324891418218613
-0.0012449875939637423
-0.06857120245695114
-0.010752432979643345
0.027250634506344795
0.023324713110923767
-0.0704457089304924
0.015068012289702892
0.06748448312282562
0.12499598413705826
0.014481542631983757
0.032726820558309555
0.015733903273940086
-0.008144950494170189
0.005363030359148979
0.055365659296512604
0.07569821178913116
-0.02978801541030407
0.020746899768710136
0.03445075824856758
-0.04065067693591118
-0.011809121817350388
-0.01473887637257576
-0.02919049747288227
0.00046718958765268326
-0.000630042573902756
0.04076973721385002
-0.016754960641264915
0.11956615000963211
-0.03281839191913605
-0.042768627405166626
0.036851558834314346
-0.013308453373610973
-0.08380717784166336
0.0467301681637764
0.030821997672319412
-0.0047196438536047935
-0.003811767790466547
0.002786715514957905
-0.07069042325019836
0.00122989306692034
-0.042153723537921906
0.014342579990625381
0.02459552325308323
0.015471349470317364
-0.04334340617060661
0.06986436992883682
0.07252992689609528
-0.016815198585391045
0.039016954600811005
0.008524700999259949
0.049930915236473083
0.15370908379554749
-0.0187907125800848
-0.05063750967383385
-0.10355536639690399
0.06372183561325073
0.010730769485235214
-0.0074150036089122295
-0.05627797171473503
-0.0001460126950405538
0.09509661048650742
-0.046851735562086105
-0.09548404067754745
0.07529550045728683
-0.09423834085464478
-0.11364953964948654
-0.004397136624902487
0.008926080539822578
0.009350583888590336
0.056245118379592896
-0.06490682065486908
-0.12665143609046936
-0.136190265417099
0.060531340539455414
-0.014665261842310429
-0.08367397636175156
-0.06433288007974625
0.04685543477535248
0.040896590799093246
0.04457876458764076
-0.05710211023688316
-0.075724758207798
-0.026462772861123085
0.030581174418330193
-0.028952108696103096
0.008277259767055511
0.039655543863773346
-0.009584552608430386
-0.049920521676540375
-0.006205940153449774
-0.01728992909193039
-0.021886982023715973
-0.022846980020403862
-0.03250914067029953
-0.06938692927360535
0.02919972501695156
-0.03301556408405304
0.04457854852080345
-0.05673125013709068
-0.1392323523759842
-0.053136128932237625
-0.03169064596295357
0.02905106171965599
-0.0541495718061924
0.017606321722269058
-0.022551795467734337
0.018836215138435364
-0.013958219438791275
0.08814293891191483
0.15203021466732025
0.08099459111690521
-0.02829561196267605
0.0699477568268776
0.027336716651916504
0.03516223281621933
0.04339122399687767
0.06768801063299179
0.053627729415893555
-0.0070440517738461494
0.00247452431358397
-0.016440123319625854
0.02800392173230648
-0.007164260372519493
0.037634190171957016
0.14539176225662231
0.029970478266477585
0.058631524443626404
-0.052095960825681686
-0.060420773923397064
-0.07687714695930481
-0.010951180011034012
0.045463886111974716
0.05295130982995033
-0.07695614546537399
-0.004900147672742605
0.0019448230741545558
-0.023901833221316338
-0.040382493287324905
0.06347473710775375
0.005845427978783846
-0.04668740555644035
0.011410947889089584
-0.019514359533786774
0.007197306491434574
0.046844832599163055
-0.008663930930197239
0.03580080345273018
0.00021896262478549033
0.05382201820611954
0.0786781758069992
0.0076973955146968365
-0.12127234786748886
-0.026782797649502754
0.05390194058418274
0.030146773904561996
0.043872859328985214
0.08740495890378952
-0.05749339982867241
-0.01149685401469469
-0.18962037563323975
-0.11222081631422043
0.025296958163380623
-0.058434974402189255
0.031225839629769325
0.06375377625226974
0.0016506706597283483
-0.08535727113485336
0.1180587038397789
-0.007280705496668816
-0.0753651112318039
0.03476504236459732
0.08153312653303146
0.12197020649909973
0.15208542346954346
0.08398730307817459
0.08539921045303345
0.003601206699386239
-0.05646355822682381
-0.03067082352936268
-0.09085793048143387
-0.019013430923223495
-0.08357610553503036
0.018946534022688866
0.014459146186709404
-0.03396444395184517
0.03165910765528679
0.020894039422273636
0.0001593501219758764
0.017846709117293358
-0.016665546223521233
0.032322026789188385
0.012223835103213787
0.037943221628665924
0.06332685798406601
-0.10506099462509155
-0.08104774355888367
-0.022357182577252388
-0.1546361893415451
-0.05546911060810089
0.050726961344480515
-0.01087953057140112
0.02240479551255703
0.024350740015506744
-0.11642569303512573
0.017647752538323402
0.03408820927143097
0.020172784104943275
-0.06990430504083633
-0.0622858889400959
-0.04014964774250984
0.051330920308828354
0.019767440855503082
0.1579461246728897
0.17987163364887238
0.039619557559490204
0.03191615641117096
0.02904972806572914
0.020016511902213097
0.009037931449711323
0.033078547567129135
0.051428936421871185
-0.013495632447302341
0.025806142017245293
0.03323925659060478
-0.03836307302117348
-0.004183611832559109
0.03710717707872391
0.020001787692308426
0.03791732341051102
-0.027748718857765198
0.10133090615272522
-0.025665780529379845
-0.00774157652631402
0.05136032775044441
-0.04185330495238304
0.05282594636082649
-0.01001714263111353
0.03560897335410118
0.00019947646069340408
-0.06208265572786331
-0.07760723680257797
-0.03796384856104851
0.03314464911818504
-0.013902582228183746
0.040932513773441315
-0.03198800981044769
0.009263507090508938
0.029346659779548645
-0.0932479128241539
0.05191730335354805
0.12386143207550049
-0.04212500527501106
-0.0007500799256376922
0.1792270690202713
0.20770038664340973
0.006159878335893154
-0.07834018021821976
0.04512205719947815
0.01466086134314537
-0.011536062695086002
0.04774701967835426
0.13499973714351654
-0.060150083154439926
-0.0693129152059555
0.08736123889684677
-0.0014413894386962056
-0.08187025040388107
0.004618160892277956
0.10639320313930511
0.027221087366342545
-0.016616780310869217
0.03242262080311775
0.024826932698488235
-0.003699819790199399
0.024451250210404396
-0.019311077892780304
0.03852468356490135
0.006118236109614372
-0.03039349429309368
0.00848374143242836
-0.02738003432750702
0.024675054475665092
-0.007407538127154112
-0.016242848709225655
-0.027316488325595856
-0.011513142846524715
-0.007177881430834532
-0.00957220233976841
0.025812113657593727
0.07926035672426224
-0.06358285248279572
-0.04824208840727806
-0.029580289497971535
-0.028278052806854248
0.0330943763256073
-0.011105738580226898
0.0004137393261771649
-0.033479124307632446
-0.05520780012011528
-0.07053223252296448
0.01618359610438347
-0.03442102670669556
0.0297560952603817
-0.08223062008619308
-0.11166626960039139
0.06848563253879547
0.0754348561167717
-0.03323719650506973
-0.005242730490863323
-0.08246434479951859
-0.04421289637684822
-0.05106811597943306
0.05787210911512375
-0.0012930278899148107
-0.002139817923307419
0.013327458873391151
-0.04273243620991707
-0.060592129826545715
0.005243896972388029
-0.00011894227645825595
0.02499670907855034
-0.050449758768081665
-0.0138363903388381
0.03422029688954353
0.00643222127109766
0.013842586427927017
-0.01891760714352131
0.006075468845665455
0.017095712944865227
0.03252784535288811
0.02683590166270733
0.02274993620812893
-0.0018298104405403137
-0.024524085223674774
-0.04919449985027313
0.008057650178670883
-0.0058309901505708694
0.05572748929262161
0.07125695049762726
-0.05726730450987816
0.026600418612360954
-0.03445561230182648
-0.05326949805021286
0.050794146955013275
0.08677597343921661
0.0348416306078434
0.0522020161151886
-0.037534017115831375
0.030653053894639015
0.007574757561087608
-0.10214930772781372
0.05811363458633423
0.0640137642621994
0.004124067723751068
-0.15529054403305054
-0.038760069757699966
0.04973596706986427
-0.09872115403413773
-0.058311380445957184
0.03150711953639984
0.021921450272202492
-0.051470980048179626
0.021765582263469696
0.034912753850221634
0.03047507256269455
-0.009953158907592297
0.005985831841826439
0.03432073816657066
-0.018925530835986137
-0.022147100418806076
0.04743298515677452
0.057769257575273514
-0.027906186878681183
-0.0022196429781615734
-0.0685090720653534
-0.0018723455723375082
0.04168776795268059
0.04886140301823616
-0.01072345394641161
0.03145908564329147
-0.01454183179885149
-0.05024271085858345
-0.10262224823236465
-0.015514475293457508
-0.007617631461471319
0.0031229800079017878
0.08512136340141296
0.11033625155687332
0.025691304355859756
0.003587920218706131
0.021742837503552437
0.050242830067873
0.01605834625661373
0.010122488252818584
0.05799243599176407
0.05830991640686989
-0.027990352362394333
-0.09842044115066528
-0.05469052121043205
-0.08207182586193085
-0.08663509041070938
-0.1614324450492859
-0.11191413551568985
0.037221018224954605
0.032831355929374695
-0.002802119357511401
-0.07005027681589127
-0.052665676921606064
-0.05599788948893547
0.07350634783506393
0.0804097056388855
-0.032200295478105545
-0.06646309792995453
0.05987365543842316
-0.011571292765438557
0.02488352730870247
-0.018721124157309532
-0.03197532519698143
0.0038822682108730078
0.06343693286180496
0.008530907332897186
-0.01805361546576023
-0.012136336416006088
-0.007002637721598148
-0.07912646979093552
-0.05131655931472778
0.0317983441054821
-0.03834211453795433
0.08176561444997787
0.09254191815853119
0.10114401578903198
0.0846540629863739
0.07629619538784027
-0.03466629236936569
-0.017209522426128387
0.03440740332007408
0.05588851496577263
-0.017781632021069527
-0.0005217692814767361
0.009131713770329952
0.0776103138923645
-0.031900227069854736
0.016997888684272766
0.02454867959022522
-0.012926209717988968
-0.06793670356273651
-0.152571901679039
0.028191689401865005
-0.07032912224531174
-0.07100958377122879
0.0902237594127655
0.03817305713891983
-0.12117798626422882
-0.13484050333499908
-0.0025612032040953636
-0.039182763546705246
-0.013442161493003368
0.014983762055635452
-0.07222975045442581
0.006051584146916866
-0.029264166951179504
0.10937923938035965
-0.08882344514131546
0.023508332669734955
0.018391672521829605
-0.08668575435876846
0.06548874080181122
0.021866613999009132
0.05345079302787781
0.014110309071838856
0.014688094146549702
0.01681767962872982
-0.033125050365924835
-0.11016225814819336
-0.06746943295001984
-0.010165650397539139
-0.0033221226185560226
-0.00833907164633274
0.06793296337127686
0.020871128886938095
0.04716469720005989
0.009973820298910141
0.022640442475676537
-0.007944229990243912
0.10862720012664795
0.07552865147590637
0.03309858217835426
-0.06479143351316452
-0.03772904351353645
0.025138936936855316
-0.07646612077951431
0.038078129291534424
0.04102051258087158
0.021906856447458267
-0.03381415084004402
-0.026738589629530907
0.030050063505768776
-0.0969657450914383
0.03789525479078293
0.08211633563041687
-0.06892561167478561
-0.0366448312997818
-0.013743925839662552
0.058208223432302475
-0.040513813495635986
0.023262057453393936
0.05676082521677017
-0.09362570941448212
0.019626986235380173
0.038558244705200195
0.08696255087852478
0.07379438728094101
0.009578707627952099
0.042873844504356384
-0.05991495028138161
-0.06660088896751404
-0.05250300467014313
0.023250043392181396
-0.001751151168718934
-0.029594019055366516
0.07325003296136856
0.06205375865101814
0.0323474146425724
-0.04342177137732506
0.00833430141210556
-0.02498040348291397
0.006737787742167711
-0.025301368907094002
0.011384815908968449
0.07904943078756332
0.14425167441368103
-0.046049702912569046
-0.08538373559713364
-0.021945983171463013
0.014874137006700039
0.03320589289069176
0.029132600873708725
-0.002739309798926115
0.08523597568273544
-0.10479693114757538
-0.06037478148937225
-0.05085720494389534
0.014761396683752537
0.09790938347578049
0.09056948870420456
0.1075175553560257
-0.0842098742723465
-0.04342614859342575
-0.007039124611765146
0.03237316757440567
0.1461746245622635
0.055633481591939926
0.021939458325505257
0.05371832847595215
0.07420716434717178
0.0003415195387788117
0.0508514866232872
0.02688395418226719
-0.1256243735551834
-0.022039063274860382
-0.11410035192966461
0.06954801082611084
0.04783331975340843
0.02268509566783905
-0.1221577450633049
-0.1164703518152237
-0.05264502763748169
-0.07256931066513062
0.01943076401948929
0.10031211376190186
-0.026701686903834343
-0.19230544567108154
-0.12611588835716248
-0.024700097739696503
-0.027964496985077858
0.0464431457221508
-0.011941980570554733
0.0431603342294693
0.08892249315977097
0.008708210662007332
0.08244629204273224
-0.05833926424384117
0.010447121225297451
-0.07032698392868042
-0.14173391461372375
-0.07645158469676971
-0.22826753556728363
0.20171543955802917
-0.0769001692533493
-0.016098717227578163
0.10191329568624496
-0.04845918342471123
-0.08317212760448456
0.03076576627790928
0.16254934668540955
0.03908815607428551
-0.015239788219332695
0.12178920209407806
0.021315883845090866
0.16495616734027863
0.200441375374794
0.05893179029226303
0.020285844802856445
0.07200275361537933
0.18353673815727234
0.1418304294347763
0.20158152282238007
0.07240884751081467
0.005868786480277777
-0.035910531878471375
-0.0198102705180645
0.044916752725839615
0.1429595649242401
-0.11161553859710693
-0.21928659081459045
-0.033644452691078186
-0.030830878764390945
0.0029490862507373095
0.08305270224809647
-0.00813688151538372
-0.1404823511838913
-0.1965482234954834
-0.01451819110661745
-0.08040108531713486
-0.03392976149916649
0.012869623489677906
-0.024553753435611725
0.05119684338569641
0.09344876557588577
-0.011913741938769817
-0.1517115980386734
-0.06829488277435303
-0.06057674437761307
0.03422069922089577
0.08163609355688095
0.12596562504768372
0.10475660115480423
-0.08034151047468185
-0.013937367126345634
-0.09256768971681595
-0.005110892467200756
0.07262914627790451
0.11378835886716843
0.08540009707212448
-0.0721127837896347
-0.02839110977947712
0.06485328078269958
0.03653058782219887
0.015127932652831078
-0.04611765220761299
-0.05223720148205757
0.08318580687046051
-0.024830380454659462
-0.02430952899158001
0.042326707392930984
0.03578997775912285
-0.028211424127221107
0.014221194200217724
-0.05529541149735451
0.020877640694379807
0.07278032600879669
0.054526664316654205
0.041294876486063004
-0.04658140987157822
-0.05981192737817764
0.018742796033620834
0.08526386320590973
0.043529607355594635
0.12450015544891357
-0.03650288283824921
0.02790609933435917
0.01568870060145855
0.0067011392675340176
0.03813869133591652
-0.004402673337608576
-0.03278818726539612
0.04681003466248512
0.0008964759763330221
0.003075777320191264
0.04416185989975929
0.08059500902891159
0.08371143788099289
-0.039317913353443146
-0.041482068598270416
-0.001174256787635386
-0.046679846942424774
-0.006262084934860468
-0.045960910618305206
0.08753730356693268
0.023930571973323822
-0.13911010324954987
-0.053775228559970856
-0.03662772849202156
0.006797273643314838
-0.038095321506261826
0.022912422195076942
0.1125544011592865
-0.09123380482196808
-0.05282212421298027
0.033803172409534454
0.03725216165184975
0.05240738019347191
-0.03938794881105423
-0.049510687589645386
0.07752889394760132
0.007368123158812523
0.10670830309391022
0.02045818231999874
0.023707576096057892
-0.06359254568815231
-0.047179266810417175
0.13387593626976013
-0.02238868549466133
0.07705996185541153
-0.008869792334735394
-0.06361858546733856
-0.05453012138605118
-0.0814129114151001
-0.08035428076982498
-0.13655249774456024
-0.04851695895195007
-0.003672725986689329
-0.006588309537619352
-0.003260258352383971
-0.023987652733922005
-0.0013201984111219645
-0.036275241523981094
0.0612170547246933
-0.081813283264637
0.03000282496213913
-0.0007186963921412826
0.010325023904442787
0.017504071816802025
0.06351462751626968
0.08994786441326141
-0.03649375960230827
-0.02418970689177513
-0.011617427691817284
-0.09727548062801361
-0.03492828086018562
0.046379029750823975
0.10261612385511398
-0.024404892697930336
-0.014807580038905144
-0.0063905492424964905
-0.025592783465981483
-0.08970364928245544
-0.04060855135321617
-0.026280786842107773
0.014353671111166477
0.025524970144033432
-0.009337237104773521
-0.009989521466195583
0.022354628890752792
0.017956651747226715
-0.007953689433634281
-0.0017921862890943885
0.03340831398963928
0.046317532658576965
0.051082316786050797
0.01564464345574379
-0.013250306248664856
0.03658134490251541
-0.06440010666847229
-0.04552415385842323
0.048268403857946396
0.03270848095417023
0.018322793766856194
0.001017542788758874
0.002721333410590887
-0.03991374373435974
0.03424212336540222
0.07603996992111206
0.05165034532546997
0.04108221456408501
0.011777444742619991
0.06319349259138107
0.0033290735445916653
-0.025228559970855713
-0.05333401635289192
0.00419032946228981
0.01878628320991993
0.04201863706111908
0.05767261981964111
-0.030749861150979996
0.007738115265965462
0.03257204592227936
-0.0540250688791275
0.008726333267986774
0.0047341445460915565
0.12240878492593765
-0.04074734449386597
-0.01728511042892933
0.04740061238408089
0.05858626961708069
-0.003102470189332962
-0.06670532375574112
0.09429480135440826
0.07553069293498993
0.010683576576411724
0.004101702477782965
-0.008636515587568283
0.0364488884806633
-0.020774144679307938
0.07557006180286407
0.00011667633225442842
-0.008042140863835812
0.06460146605968475
0.045661233365535736
0.091359443962574
0.06395426392555237
0.0008943027933128178
0.047102682292461395
0.06912706792354584
0.012339831329882145
0.021105553954839706
-0.05017191171646118
-0.003599126124754548
0.039357833564281464
0.015051061287522316
0.014063713140785694
0.038463279604911804
0.03843401372432709
0.01969660073518753
0.0016877574380487204
0.01759086363017559
-0.09490083903074265
-0.018027927726507187
-0.053999852389097214
0.035122308880090714
0.08518233150243759
0.08869428187608719
0.15178650617599487
-0.06393274664878845
-0.04126090928912163
-0.044612374156713486
-0.033058181405067444
0.023934118449687958
0.14862103760242462
0.04896024242043495
-0.04375353083014488
0.015817612409591675
-0.0597856231033802
-0.13221541047096252
-0.09087971597909927
-0.0539160817861557
-0.0380319282412529
0.06472726911306381
-0.015127848833799362
-0.055621445178985596
-0.029534345492720604
-0.1458679586648941
-0.07872449606657028
-0.11139178276062012
-0.035471703857183456
-0.005827886518090963
-0.04720085859298706
0.06514482945203781
0.2341371327638626
0.15530945360660553
0.03938257694244385
-0.014045343734323978
-0.12292735278606415
-0.03560028225183487
0.00473775714635849
0.1434890627861023
-0.011953908950090408
-0.03142520785331726
0.0235587190836668
-0.019917963072657585
0.0015656581381335855
-0.004508709069341421
0.018514659255743027
0.02430221065878868
0.04963122680783272
-0.07062654942274094
-0.08207281678915024
-0.1031801700592041
-0.04667508974671364
0.012993043288588524
0.10209913551807404
0.02957077883183956
-0.07778951525688171
-0.022027112543582916
-0.06075316295027733
-0.14080774784088135
-0.04808877781033516
0.08778908103704453
0.08341703563928604
-0.06133931875228882
0.010598213411867619
0.05048656836152077
-0.05403655767440796
0.11045470833778381
0.03325214236974716
0.10337487608194351
0.05618474259972572
0.06425277143716812
0.04104822874069214
-0.1019255593419075
0.13961800932884216
0.006255113985389471
0.0066022127866744995
-0.014608647674322128
0.040573447942733765
0.05043290555477142
-0.008262580260634422
-0.025479841977357864
-0.07209505140781403
-0.028528952971100807
-0.0006691021844744682
0.02999882958829403
0.06118591129779816
-0.0401981882750988
-0.08335046470165253
-0.058683983981609344
0.008614646270871162
-0.006012145429849625
-0.00833003968000412
0.07230107486248016
0.032945964485406876
-0.0075471485033631325
-0.07712006568908691
0.019076017662882805
-0.08534443378448486
-0.023076308891177177
0.025547487661242485
-0.01598111353814602
0.09977366775274277
0.089208222925663
0.09956374764442444
-0.15867845714092255
-0.09213600307703018
-0.017848949879407883
-0.051117319613695145
0.012542372569441795
0.04985179752111435
0.07381381839513779
-0.009974916465580463
0.03351522609591484
-0.014718910679221153
-0.012495378963649273
-0.005630185827612877
0.02540421672165394
0.12307430058717728
-0.010938354767858982
0.028191467747092247
-0.04760248586535454
-0.022522281855344772
-0.008127612993121147
-0.12684065103530884
-0.06619324535131454
-0.08792009949684143
-0.02766113542020321
-0.007159652188420296
0.03849508985877037
0.062271907925605774
0.020990882068872452
-0.12775291502475739
-0.04213123768568039
-0.16753682494163513
-0.23334741592407227
0.08815807849168777
0.10531240701675415
0.037263840436935425
-0.004384872503578663
0.021675657480955124
0.008140897378325462
-0.02512296475470066
-0.024288035929203033
-0.005211975891143084
-0.013456226326525211
-0.01449833158403635
-0.023780588060617447
-0.20701831579208374
-0.1787264049053192
0.03540661931037903
0.024499453604221344
0.14806091785430908
0.08460617810487747
-0.03347350284457207
-0.10693711042404175
-0.07997549325227737
0.0501508004963398
0.13022466003894806
0.16399264335632324
0.07741127163171768
-0.10609529912471771
-0.015568382106721401
-0.09454580396413803
-0.017797822132706642
0.059215743094682693
0.005443282891064882
0.02693958580493927
0.0009242966771125793
-0.030147498473525047
-0.09893560409545898
0.007854008115828037
-0.0357629768550396
-0.09833209216594696
-0.03553897887468338
-0.009707941673696041
0.014032863080501556
0.03820871189236641
0.070612832903862
0.042565297335386276
-0.03233078867197037
0.03862630948424339
0.007720907684415579
0.05367685854434967
0.04285578429698944
0.03602607175707817
-0.01790163293480873
-0.02723582834005356
-0.010427418164908886
-0.024547649547457695
-0.036053240299224854
-0.03819591924548149
-0.04668235406279564
-0.0259898342192173
-0.006434270646423101
-0.012547710910439491
-0.09064818918704987
0.026091312989592552
0.0925673171877861
-0.04809579253196716
-0.09150347858667374
-0.08009540289640427
-0.0070145027711987495
-0.12121511250734329
-0.0028215916827321053
0.08766652643680573
0.13110637664794922
-0.04721038416028023
-0.166218101978302
0.012804390862584114
0.02308584377169609
-0.014105938374996185
0.09568756073713303
0.11901818960905075
0.03864295780658722
0.02939053811132908
0.019793838262557983
-0.021342763677239418
0.058277055621147156
0.033321812748909
-0.024347860366106033
-0.05717233195900917
-0.04453494772315025
0.14116603136062622
0.0808197408914566
0.09539637714624405
0.06678419560194016
-0.07870025187730789
-0.24832633137702942
-0.17210252583026886
0.08841206133365631
0.007971168495714664
-0.09763322025537491
-0.190310999751091
-0.12636883556842804
-0.14338693022727966
-0.08229606598615646
0.004865242633968592
-0.00934935174882412
-0.03831200301647186
0.01116845104843378
-0.03181552514433861
0.013067885302007198
0.046347446739673615
-0.04768893122673035
0.03376997634768486
-0.01773696392774582
0.07988471537828445
0.05362456664443016
0.10413572192192078
-0.0009157266467809677
0.012727583758533001
-0.0016969942953437567
-0.13120965659618378
-0.08454231917858124
0.03501180186867714
-0.008802365511655807
0.0017678303411230445
0.06223636865615845
0.024465614929795265
-0.044267889112234116
-0.02015114016830921
-0.02932470664381981
-0.13019467890262604
-0.10712055116891861
0.043321311473846436
-0.0034473442938178778
-0.015123037621378899
-0.002198290778324008
-0.04173189029097557
-0.010943576693534851
-0.03672495484352112
0.06848108023405075
-0.030164236202836037
-0.025653835386037827
0.024143671616911888
-0.011402453295886517
0.09249717742204666
0.01873595640063286
0.08917493373155594
0.05031229928135872
-0.023718925192952156
0.04423245042562485
-0.051655013114213943
-0.13464081287384033
-0.11349382996559143
0.006339845713227987
0.021218758076429367
-0.01775500550866127
0.036084119230508804
0.04016560688614845
-0.002867996459826827
0.014944248832762241
-0.007740308530628681
-0.011499491520226002
0.014589115045964718
0.10602229088544846
0.03437897562980652
-0.027119651436805725
0.029237370938062668
0.007360967341810465
-0.03849630057811737
-0.051881518214941025
-0.0010335874976590276
0.011501072905957699
0.03947507590055466
-0.04966627433896065
0.03250490874052048
-0.02329258620738983
-0.00795905664563179
-0.020560631528496742
0.0580219030380249
-0.09521377831697464
-0.04085962474346161
-0.01791291870176792
-0.012270664796233177
0.018305419012904167
-0.0022820907179266214
-0.0009192052530124784
-0.0663551613688469
-0.057771652936935425
0.01977737993001938
-0.1495215892791748
-0.0859684944152832
-0.016071606427431107
0.0760548934340477
0.04553232342004776
0.02071898989379406
0.008576699532568455
-0.01478784903883934
0.038557134568691254
0.01297243032604456
0.0686444491147995
0.013249344192445278
-0.019203634932637215
0.03353402391076088
0.020145725458860397
-0.02920769900083542
0.03985688090324402
0.09273918718099594
0.026018258184194565
0.014764444902539253
0.054206229746341705
-0.014211000874638557
-0.031231924891471863
-0.08056771755218506
-0.004741821438074112
0.10083023458719254
0.06942823529243469
0.05675699934363365
-0.04791049286723137
-0.12387914955615997
-0.07762307673692703
-0.03548760712146759
0.015579218044877052
-0.04994520545005798
0.041805703192949295
-0.04663729667663574
-0.01097392849624157
0.0012590597616508603
0.03528154268860817
-0.08755351603031158
-0.11975838989019394
0.006174478214234114
-0.033578015863895416
-0.047653716057538986
-0.014530478976666927
0.015487931668758392
0.06261472404003143
0.023192767053842545
0.1220037117600441
-0.039195530116558075
-0.060225363820791245
-0.03758753463625908
0.1080767959356308
0.12092317640781403
0.04249206930398941
-0.022104497998952866
-0.0029093793127685785
-0.016080068424344063
-0.02145591378211975
-0.066852867603302
-0.12621331214904785
-0.03451399505138397
0.0342540517449379
-0.03535615652799606
-0.004085794556885958
-0.005870489403605461
-0.01729893498122692
0.022608578205108643
0.026290148496627808
0.024902772158384323
-0.021476298570632935
-0.03126726672053337
-0.0038186179008334875
-0.00811605341732502
0.0029884313698858023
-0.015786394476890564
0.014308187179267406
-0.041817281395196915
0.014360408298671246
0.018004033714532852
-0.004709111526608467
-0.04468533769249916
0.015677526593208313
0.004758560564368963
0.038205236196517944
-0.03737015649676323
-0.03160274028778076
0.017052752897143364
0.0018455063691362739
-0.023293014615774155
-0.0020700679160654545
-0.027839994058012962
-0.026591964066028595
-0.053998108953237534
0.007055839989334345
-0.03813241422176361
0.016308194026350975
0.01423419639468193
-0.01825702376663685
0.009780894964933395
-0.03743452951312065
0.00048640978639014065
-0.016310768201947212
0.02589569054543972
0.01061791367828846
-0.016009029000997543
-0.0028310155030339956
-0.0006857101107016206
-0.01012059859931469
-0.01023092120885849
-0.026454921811819077
-0.048858776688575745
0.030733760446310043
-0.019038589671254158
-0.0018309860024601221
0.0511673241853714
0.019433869048953056
0.02277151495218277
-0.004253431223332882
0.01587919518351555
-0.02299654483795166
-0.020630545914173126
0.007852388545870781
0.027101188898086548
-0.030944721773266792
0.01925772614777088
0.034682463854551315
0.021138466894626617
-0.03093750961124897
-0.04437582939863205
-0.013397403992712498
-0.021009977906942368
-0.040139514952898026
-0.020482582971453667
0.025126991793513298
-0.030371522530913353
-0.023167399689555168
0.006748783867806196
0.013782982714474201
0.01819594018161297
0.0349871963262558
0.010558822192251682
-0.01670794002711773
-0.008647315204143524
0.00916336290538311
-0.01353382971137762
0.001545298146083951
0.008503569290041924
-0.03039286658167839
-0.026744302362203598
-0.012621722184121609
0.004720143973827362
-0.014954213984310627
0.014028951525688171
-0.008627389557659626
0.023905498906970024
-0.04018540680408478
-0.03768651559948921
-0.03420662879943848
0.02910369075834751
-0.02153872139751911
-0.04535622149705887
-0.020760001614689827
0.03283517807722092
-0.03472311049699783
0.018996266648173332
0.010168861597776413
-0.029484938830137253
-0.010448542423546314
-0.029683684930205345
-0.017109299078583717
0.009641188196837902
-0.01912347413599491
0.03581644594669342
0.013554020784795284
0.004853445570915937
-0.0031229055020958185
-0.04356256127357483
-0.03876370191574097
-0.03837859630584717
-0.03344673663377762
0.018420452252030373
0.005265232175588608
0.03583473339676857
-0.007961873896420002
-0.016242561861872673
-0.037666961550712585
0.0010202561970800161
-0.028174644336104393
-0.032997749745845795
0.0023798642214387655
-0.03722427785396576
0.01716812700033188
-0.03222207352519035
-0.009579791687428951
-0.009554021060466766
0.03273816406726837
0.0035853690933436155
0.02429271675646305
-0.021478476002812386
0.01791493035852909
0.017463402822613716
-0.05497152730822563
-0.0068434905260801315
-0.012820908799767494
-0.03267459198832512
-0.0319146066904068
0.024597395211458206
-0.027440864592790604
-0.0241292342543602
0.01333853043615818
0.019397184252738953
0.021655147895216942
-0.025797322392463684
0.016728995367884636
0.01789451204240322
-0.033099498599767685
-0.0128033347427845
-0.030463598668575287
-0.0007770976517349482
0.002113540656864643
-0.007577060256153345
-0.03498131036758423
0.02782720886170864
0.0369938462972641
-0.014943580143153667
-0.027673641219735146
0.006074162665754557
-0.03683434799313545
-0.01795588620007038
-0.03569535166025162
0.018575288355350494
0.016316203400492668
-0.0482550784945488
0.01750408113002777
0.004641642794013023
0.01917118765413761
-0.027718503028154373
-0.00696681160479784
1.3263961591292173e-05
0.011722046881914139
-0.018099522218108177
0.014056527987122536
-0.020159516483545303
0.00598175497725606
-0.005048144143074751
0.005674390122294426
-0.0014897037763148546
-0.05182352662086487
-0.042142122983932495
-0.0069501581601798534
0.002801058813929558
-0.024518856778740883
-0.014991599135100842
-0.015626531094312668
0.008631766773760319
0.02667119912803173
0.022631293162703514
-0.028861356899142265
-0.04327195882797241
0.004463095683604479
0.023613417521119118
0.024271884933114052
-0.012186749838292599
-0.023845503106713295
0.007920242846012115
-0.03510061278939247
0.02254071831703186
-0.0006638637860305607
0.010057758539915085
-0.03984581306576729
-0.005087600089609623
0.028061049059033394
-0.036340463906526566
0.01495908759534359
0.0032591528724879026
0.013978966511785984
-0.018815111368894577
0.010691960342228413
-0.03801679238677025
-0.031881947070360184
-0.001620923401787877
-0.019153622910380363
0.03488213196396828
-0.021957330405712128
-0.0024650313425809145
0.008564376272261143
-0.008790004067122936
0.01779189147055149
-0.0059943413361907005
0.0006042048917151988
-0.016791826114058495
0.008184202015399933
0.002378334291279316
-0.03103078342974186
-0.0033965378534048796
0.011362125165760517
-0.03790152072906494
-0.006199768744409084
-0.008152027614414692
-0.03775752708315849
0.00026340506155975163
-0.0028734575025737286
0.017286183312535286
0.021208764985203743
-0.010855774395167828
9.900988516164944e-05
0.012761459685862064
-0.019054556265473366
-0.03188018500804901
0.010006443597376347
0.005553540773689747
-0.0221181008964777
0.023563656955957413
-0.021257011219859123
0.04757658392190933
0.017843494191765785
0.01091795414686203
0.004898155108094215
-0.047998394817113876
0.008035528473556042
0.0069154114462435246
0.020210083574056625
-0.005349180195480585
-0.0027786046266555786
0.023717839270830154
0.021854545921087265
-0.03385686129331589
-0.00793094839900732
0.014997892081737518
-0.017521535977721214
-0.025511063635349274
0.012968865223228931
-0.03575720638036728
-0.02183767408132553
0.020135577768087387
-0.010855044238269329
0.03875574469566345
0.021725131198763847
-0.03430917486548424
-0.0010062747169286013
0.004540759138762951
-0.02046014554798603
0.036722343415021896
0.014269488863646984
-0.00021708800341002643
-0.0450473316013813
0.005352779757231474
0.018047094345092773
-0.03762540966272354
0.010655492544174194
0.02494589239358902
-0.0009512397227808833
-0.02463134378194809
-0.017005201429128647
0.03466681018471718
-0.02236098237335682
-0.03987704962491989
-0.03881677985191345
0.011346506886184216
0.003177563427016139
0.011473975144326687
0.013403426855802536
-0.006329562980681658
-0.0023628012277185917
0.0012568513629958034
0.013388046063482761
-0.03799857571721077
0.025479480624198914
-0.01529547106474638
0.008064313791692257
-0.012971405871212482
-0.001685719471424818
-0.04258909448981285
-0.03276606649160385
-0.03065575286746025
-0.02506932243704796
-0.034336477518081665
0.008707177825272083
-0.013195562176406384
-0.03729695826768875
-0.02831917069852352
-0.027088208124041557
-0.030639247968792915
-0.037037670612335205
0.0002741731586866081
-0.04068177938461304
0.00024380300601478666
-0.006688002496957779
-0.01748144067823887
-0.04447630047798157
0.01822146587073803
-0.016630716621875763
-0.014203130267560482
0.004057574551552534
0.006680220831185579
0.0037225927226245403
-0.0075446078553795815
0.01300757098942995
-0.03770015761256218
-0.030175287276506424
0.016783269122242928
0.03594000265002251
0.012760969810187817
-0.0030995968263596296
-0.039975605905056
0.00886564701795578
-0.038090288639068604
-0.0241358894854784
0.004360047634691
-0.0024754733312875032
0.013223693706095219
0.028090501204133034
-0.01268882304430008
-0.019799795001745224
-0.02382778190076351
-0.00952895451337099
-0.002290027914568782
0.01717555709183216
-0.005836127791553736
-0.031615953892469406
0.023091981187462807
0.013655556365847588
-0.007377310190349817
-0.0034025253262370825
0.025551503524184227
0.021635787561535835
0.018074970692396164
-0.016395004466176033
0.03621717169880867
-0.03570352494716644
0.020464668050408363
-0.016613688319921494
0.008742881938815117
0.008441279642283916
0.004247999284416437
-0.03663521260023117
-0.051276642829179764
-0.030059998854994774
-0.03312832862138748
-0.013607222586870193
-0.03288113698363304
0.003715778701007366
-0.03662712126970291
0.015949919819831848
-0.015323691070079803
-0.02996138297021389
-0.023511668667197227
0.0201198048889637
0.005713625345379114
-0.022885596379637718
-0.022570675238966942
0.00018776928482111543
-0.00746135413646698
0.015200930647552013
0.01911257952451706
-0.022368356585502625
0.019093573093414307
0.005463814362883568
-0.01623770408332348
-0.02180429920554161
-0.021114392206072807
-0.000989710446447134
0.0072599975392222404
-0.021031662821769714
-0.038256850093603134
-0.0074889142997562885
-0.010333430953323841
0.006296008359640837
0.024001924321055412
0.021351128816604614
0.013996800407767296
0.008876240812242031
0.018461883068084717
0.013712677173316479
-0.03425302729010582
0.035959597676992416
0.02437620796263218
-0.008964053355157375
0.013486784882843494
0.07488754391670227
0.046838440001010895
-0.028040649369359016
0.00282210111618042
-0.02850828319787979
-0.024802135303616524
-0.038227152079343796
0.008641388267278671
0.014466172084212303
-0.02043023519217968
-0.01114728208631277
0.006084668915718794
0.025605587288737297
-0.03930523619055748
-0.019458914175629616
-0.03785845264792442
0.012510108761489391
-0.04046803340315819
-0.007265096064656973
-0.00012342807895038277
0.019631560891866684
-0.00907280296087265
0.004610162694007158
-0.04810696840286255
-0.029596418142318726
-0.041129808872938156
0.021831434220075607
0.01745857298374176
-0.016803041100502014
-0.019487326964735985
0.01990266889333725
0.015132403001189232
0.019840430468320847
-0.02039909176528454
-0.022943077608942986
0.02468349039554596
-0.004069020040333271
-0.04106495901942253
0.004477575421333313
-0.0036351201124489307
-0.011629307642579079
-0.011127157136797905
0.02684841863811016
0.0033617930021137
-0.04190609231591225
-0.03462126478552818
-0.019156916067004204
-0.012287844903767109
0.005972601007670164
-0.006807412952184677
-0.03252973407506943
-0.01935122162103653
0.022292610257864
-0.016050197184085846
0.00829629972577095
0.012446706183254719
-0.02863232232630253
0.0160739254206419
0.022976383566856384
0.00896280724555254
0.0018560554599389434
-0.038593839854002
-0.039471324533224106
1.8255623217555694e-05
-0.02614351361989975
0.01664608158171177
0.018992125988006592
0.002577716950327158
0.019207211211323738
0.02527780830860138
-0.02865501679480076
-0.0259008277207613
-0.010321002453565598
0.002329730661585927
-0.006393007002770901
-0.03560452535748482
0.022614076733589172
-0.027677025645971298
-0.03863706812262535
-0.029973594471812248
0.02260671742260456
-0.036175575107336044
-0.008025533519685268
-0.014464015141129494
-0.044050537049770355
-0.023043565452098846
-0.026195721700787544
0.04077688232064247
0.007939920760691166
-0.018492180854082108
0.02359726093709469
-0.006244728807359934
0.0061216698959469795
0.0007023125072009861
-0.017518123611807823
-0.012076209299266338
-0.037804946303367615
-0.028427859768271446
-0.00991136021912098
-0.017101237550377846
0.005530592519789934
-0.019017182290554047
-0.025102056562900543
-0.024740522727370262
-0.05633164197206497
-0.022610744461417198
0.014876995235681534
-0.0059279100969433784
0.02123277448117733
-0.04506058618426323
0.02506566420197487
-0.014780329540371895
0.041016221046447754
-0.011173776350915432
-0.016128702089190483
0.008190233260393143
-0.02667384222149849
-0.04398485645651817
0.006260961759835482
0.023271113634109497
0.025954486802220345
0.010260544717311859
-0.027444208040833473
-0.045251332223415375
0.009290595538914204
-0.034054700285196304
0.011325792409479618
0.00995590165257454
-0.019551359117031097
0.024227656424045563
-0.034616995602846146
-0.01895277202129364
-0.022569674998521805
-0.00656196940690279
-0.023980822414159775
-0.044507402926683426
-0.02191227488219738
0.0018719002837315202
-0.04297003522515297
0.0021260336507111788
0.00970579031854868
0.02278180420398712
-0.017306862398982048
-0.0355648398399353
0.009850465692579746
-0.020735379308462143
-0.002886665053665638
0.011883365921676159
0.025738710537552834
0.018428361043334007
0.03652343153953552
0.033690791577100754
-0.002249544020742178
0.011010674759745598
0.01653367094695568
-0.0374814048409462
-0.016187259927392006
-0.04084870591759682
-0.043490923941135406
-0.04250762611627579
0.0025073413271456957
-0.04187454655766487
-0.030834637582302094
-0.016848325729370117
-0.022765327244997025
-0.007784653455018997
-0.00010500480129849166
-0.04270760342478752
-0.043951019644737244
-0.021679941564798355
0.013909026980400085
-0.007584891282021999
-0.01693781465291977
0.03761199116706848
0.046597693115472794
0.051684994250535965
0.005839772056788206
0.004339499399065971
-0.013761655427515507
0.004157545510679483
-0.002746093086898327
0.02617337740957737
-0.025953808799386024
0.02088688313961029
0.03870781511068344
0.04324565455317497
-0.015744607895612717
-0.020883094519376755
0.023665307089686394
-0.006902250461280346
-0.011228803545236588
0.01354870293289423
0.0022062044590711594
-0.018816055729985237
-0.011262650601565838
0.03262504190206528
0.01468463335186243
-0.025310484692454338
0.023752765730023384
0.02438199333846569
-0.0271168053150177
-0.050400301814079285
0.0019032728159800172
-0.012772917747497559
0.029426278546452522
-0.034929435700178146
-0.007168651092797518
-0.034791965037584305
0.01680210791528225
-0.0029925093986094
-0.015457411296665668
0.013378074392676353
0.006762172561138868
0.033778514713048935
0.025624804198741913
-0.011568140238523483
-0.006662967149168253
0.029509203508496284
-0.019724028185009956
-0.0029161449056118727
-0.0321609303355217
-0.04376199468970299
0.01755901239812374
-0.030344052240252495
-0.040996845811605453
0.007291123736649752
-0.01792670227587223
-0.03793090209364891
-0.03392639011144638
0.013954213820397854
-0.01633528247475624
0.009913913905620575
0.01955636963248253
-0.010945861227810383
0.007541341707110405
0.021030856296420097
0.005258843302726746
0.0217638798058033
-0.016180286183953285
-0.04152746871113777
-0.002140451455488801
-0.03482917696237564
-0.025725845247507095
-0.02262095920741558
0.005914722569286823
-0.023139027878642082
-0.04017375037074089
-0.010460386984050274
0.018122805282473564
0.022841965779662132
-0.003956396132707596
0.012343776412308216
-0.025790313258767128
-0.007190675474703312
0.008722592145204544
-0.015473872423171997
0.016032522544264793
0.014868645928800106
-0.01819976605474949
0.0281151682138443
0.0011091877240687609
-0.02079588919878006
0.01228052657097578
-0.02395138330757618
-0.02061324380338192
-0.0062197004444897175
0.021350059658288956
-0.01408609002828598
-0.03025989606976509
-0.0327342264354229
-0.029052114114165306
-0.030812561511993408
-0.014282102696597576
-0.039366722106933594
0.028179407119750977
0.002128905151039362
-0.02138729766011238
-0.007272663526237011
0.00589049281552434
-0.00800345465540886
-0.033202581107616425
-0.018567366525530815
0.0016756411641836166
-0.011384650133550167
-0.008559712208807468
-0.013653264380991459
-0.04668932780623436
-0.02891533449292183
-0.0210487712174654
-0.010963844135403633
-0.02330896258354187
0.019919028505682945
-0.040748339146375656
0.015156085602939129
-0.007647420279681683
0.014280205592513084
-0.033892858773469925
0.01033733133226633
-0.02761288918554783
-0.01584610529243946
-0.03965720161795616
-0.003933030180633068
-0.006211577448993921
-0.03513874113559723
-0.002260875189676881
-0.03318117931485176
0.00177865126170218
-0.043782491236925125
0.0032640215940773487
-0.02130790799856186
-0.03977550193667412
0.01709430292248726
-0.019558880478143692
0.01704559475183487
-0.021738829091191292
0.020966485142707825
-0.02148258686065674
-0.016154605895280838
0.02485533431172371
-0.01598011702299118
0.006969969719648361
-0.005587202496826649
-0.01242989581078291
0.018124215304851532
-0.008860343135893345
-0.04126467555761337
0.021433353424072266
0.03199617192149162
-0.012858709320425987
0.02813495509326458
0.011410567909479141
0.005542771890759468
0.018383022397756577
0.0074411011300981045
-0.013881955295801163
-0.02507597580552101
-0.037224266678094864
0.003257401054725051
0.006112589966505766
-0.0324675589799881
0.024667980149388313
0.02047337032854557
0.014782628044486046
-0.0418807789683342
-0.020383751019835472
0.009551648050546646
-0.029191475361585617
-0.02656722255051136
0.01622564159333706
-0.00811661034822464
-0.014612537808716297
0.0007298818090930581
-0.03728017583489418
-0.03338070213794708
-0.00018145213834941387
-0.027199052274227142
-0.018940020352602005
0.024682777002453804
0.0003256622876506299
-0.011037672869861126
0.004425996448844671
-0.0321655347943306
-0.031382832676172256
-0.03438800573348999
0.019100502133369446
-0.036454424262046814
0.007621324621140957
-0.023592131212353706
0.07249948382377625
0.17068295180797577
0.08358021080493927
0.08774899691343307
-0.01097382977604866
0.08978701382875443
0.02129926159977913
-0.0008104906301014125
0.04194588586688042
0.05544000491499901
0.02236137166619301
-0.09321258962154388
-0.0422075055539608
0.03498190641403198
-0.05556982383131981
-0.01655883528292179
-0.03281836211681366
-0.0709136351943016
-0.09980400651693344
-0.02108483575284481
-0.020861539989709854
-0.08322382718324661
-0.006515816785395145
0.023426666855812073
0.006643546279519796
-0.08488072454929352
-0.045578304678201675
-0.0020852345041930676
0.1483646184206009
0.08259738981723785
0.1147223636507988
-0.021576255559921265
-0.09185006469488144
0.0719338208436966
0.07133114337921143
0.02455599047243595
0.009386176243424416
-0.0766306221485138
-0.07481792569160461
-0.05931604653596878
0.06664825230836868
0.0779440701007843
-0.05994743853807449
-0.04329876974225044
0.0022985946852713823
-0.08863282948732376
-0.03490421548485756
-0.02011031098663807
-0.0046421536244452
0.07024239003658295
0.11570275574922562
0.07433702051639557
0.10480794310569763
0.03163599595427513
0.04198363795876503
0.03163659945130348
-0.014417248778045177
0.027664506807923317
0.022110668942332268
0.003649304388090968
0.0021227176766842604
0.006975636817514896
0.04086589813232422
-0.0320906825363636
-0.06235803663730621
0.03828350827097893
-0.06094178929924965
-0.05767640098929405
0.05693347752094269
-0.03625587001442909
-0.02395269274711609
-0.07057566940784454
0.0333600714802742
-0.10644111037254333
-0.049798861145973206
0.019931308925151825
0.02583962306380272
0.027911318466067314
0.059759777039289474
0.05957447737455368
-0.05108962953090668
0.02644067257642746
0.061571478843688965
0.08639653027057648
0.02461494877934456
0.06134943291544914
0.01603415608406067
0.0013081133365631104
0.049651846289634705
0.07494968920946121
0.0010344351176172495
-0.07776274532079697
-0.011121648363769054
-0.011048002168536186
0.061419349163770676
0.02062460035085678
0.05014162138104439
-0.04212115705013275
0.08506737649440765
0.15664273500442505
0.08200178295373917
0.06241681054234505
0.07907287776470184
0.06517879664897919
0.013822552748024464
-0.06724965572357178
-0.04420733079314232
-0.043117303401231766
-0.04391128197312355
-0.0676840990781784
-0.029276279732584953
0.034221455454826355
0.016004161909222603
-0.04174250736832619
-0.01787399686872959
0.06628118455410004
-0.07313380390405655
0.005243158899247646
0.04612358659505844
0.07987687736749649
0.01925981603562832
0.10209096223115921
-0.017843669280409813
-0.05075140669941902
0.0785132348537445
0.1162821426987648
-0.06812578439712524
-0.19780811667442322
0.002955801784992218
0.11911750584840775
0.0875714123249054
0.06284627318382263
-0.07609787583351135
-0.11409078538417816
0.02764606662094593
0.0740637332201004
0.05011051893234253
0.12937486171722412
0.09880910813808441
-0.16532735526561737
-0.158077210187912
-0.024515843018889427
0.11894601583480835
-0.004809695295989513
-0.03184286504983902
-0.04848708584904671
0.019569367170333862
0.12230362743139267
0.01649501360952854
0.05974401906132698
0.09665032476186752
0.058664366602897644
0.023886950686573982
0.06733642518520355
-0.004501097835600376
0.029082687571644783
-0.02249883860349655
-0.06389524787664413
-0.08796603232622147
-0.0754680335521698
-0.08239936828613281
0.037207216024398804
-0.025392981246113777
0.049940433353185654
0.06369676440954208
-0.015580855309963226
-0.058937884867191315
0.09382379055023193
0.08478619158267975
0.14435972273349762
0.12773139774799347
0.036136627197265625
0.03850865364074707
0.15350782871246338
0.07824475318193436
-0.00855158269405365
-0.04135091230273247
0.09750372171401978
0.15675334632396698
0.14115117490291595
0.053285107016563416
-0.04537557065486908
-0.16414830088615417
-0.08450979739427567
-0.1225922629237175
0.13371622562408447
0.03307155519723892
0.01586788520216942
-0.06845484673976898
-0.10146481543779373
0.006576276384294033
0.04946208745241165
-0.0668199211359024
0.10457196086645126
0.16651661694049835
-0.022154303267598152
0.02584252692759037
0.11062934994697571
0.11062540113925934
0.0013025732478126884
0.047526221722364426
0.011219128035008907
-0.06661385297775269
0.0517926923930645
-0.042692478746175766
0.03615783527493477
-0.01713104359805584
-0.039375241845846176
-0.024122225120663643
0.024267073720693588
0.01619579829275608
0.005131624639034271
-0.05209261178970337
-0.029774559661746025
-0.07565966248512268
-0.029492482542991638
-0.0035983885172754526
0.05440390855073929
-0.014435007236897945
-0.013772577047348022
-0.003916637040674686
0.0071950871497392654
0.12375044822692871
0.07211608439683914
-0.07515785843133926
-0.07244296371936798
-0.02800479531288147
0.0089399553835392
0.038563672453165054
0.05176025256514549
-0.0009287024731747806
-0.05891667678952217
0.031130965799093246
0.11709057539701462
0.04731699079275131
0.08015897125005722
0.030328962951898575
-0.18420158326625824
-0.17697103321552277
0.03264779597520828
0.06997238844633102
0.03214757516980171
-0.013650106266140938
-0.028065085411071777
0.025178272277116776
0.04927099123597145
0.11064282804727554
0.15700845420360565
0.1265254020690918
0.040558986365795135
0.083473339676857
0.07440977543592453
0.048171915113925934
0.041327208280563354
0.1016514003276825
0.04283829405903816
0.0064645688980817795
-0.06590205430984497
0.03707456216216087
0.04846901074051857
-0.044804807752370834
0.06324268877506256
0.027027685195207596
0.021271804347634315
-0.0780019462108612
0.011793308891355991
-0.14909803867340088
-0.23887832462787628
0.08032359927892685
0.02217453345656395
-0.0014888292644172907
-0.0030757335480302572
0.03959449753165245
-0.10154843330383301
0.1516532599925995
-0.026916632428765297
-0.012346522882580757
-0.038967497646808624
0.036144357174634933
0.03157106414437294
0.06088639050722122
-0.0874594897031784
-0.14583630859851837
0.012849519029259682
0.045250631868839264
0.066958487033844
0.07897180318832397
-0.1034785807132721
-0.11257516592741013
-0.14023052155971527
-0.08077972382307053
0.025957196950912476
0.044738370925188065
-0.025641176849603653
0.013635819777846336
0.11434247344732285
0.017261991277337074
0.0052277580834925175
0.03087511658668518
-0.03714803233742714
-0.03473580256104469
-0.02115936018526554
-0.002507932484149933
-0.03277352452278137
-0.039331622421741486
-0.08540763705968857
-0.013632162474095821
0.015089103020727634
0.03309883922338486
-0.027765236794948578
-0.04395405575633049
-0.11031109094619751
-0.0417243130505085
0.04661472514271736
0.042152710258960724
0.05114821344614029
0.13405892252922058
0.01578010618686676
-0.0714828372001648
-0.022772379219532013
0.11328696459531784
0.07281874865293503
0.06656695157289505
0.09675714373588562
0.07487250119447708
-0.07146584987640381
-0.04600488394498825
-0.0116586834192276
0.013156667351722717
-0.05900966376066208
0.021008243784308434
0.10223343968391418
0.03191700205206871
0.07625148445367813
0.05478764697909355
-0.10628138482570648
-0.11141388863325119
-0.06830926239490509
0.03428077697753906
-0.034915901720523834
-0.04193903133273125
-0.025973549112677574
0.012125286273658276
0.053602077066898346
0.11820254474878311
0.08332353830337524
-0.0014872258761897683
0.004854605533182621
-0.035062678158283234
-0.006508638150990009
0.05639101564884186
-0.021170279011130333
-0.014048950746655464
0.022209543734788895
0.021184176206588745
-0.02859598584473133
-0.05451305955648422
0.0018202277133241296
-0.009861464612185955
-0.09080982208251953
-0.0190260149538517
0.04736780747771263
0.02012307569384575
-0.0370100662112236
-0.007738356012851
0.07985766232013702
-0.018143288791179657
-0.01709260419011116
0.008233975619077682
0.11166863888502121
0.07161226868629456
0.02107197791337967
0.05823458731174469
0.06710970401763916
0.003789492417126894
0.012588887475430965
0.0076782903634011745
-0.00043808427290059626
0.02378036640584469
0.009667119942605495
0.12154464423656464
0.06446525454521179
0.0788324847817421
-0.021504120901226997
-0.10306771844625473
-0.10505180060863495
0.010884054005146027
-0.061422113329172134
-0.022399907931685448
-0.04545384645462036
-0.021647073328495026
0.03527388721704483
0.13085013628005981
0.057807598263025284
-0.00294431671500206
0.1102399230003357
0.06113257631659508
0.02877684123814106
-0.042694054543972015
0.011975047178566456
-0.021495483815670013
0.08908843994140625
-0.014901434071362019
-0.06426919996738434
-0.0032804510556161404
-0.039290957152843475
0.04352826625108719
0.003635066794231534
-0.03613210469484329
-0.038105376064777374
-0.05167560279369354
-0.01834273524582386
0.07977364957332611
0.12452245503664017
0.027944663539528847
-0.1091441884636879
0.058805834501981735
0.027506094425916672
-0.00316141196526587
0.12076938152313232
0.04414384439587593
0.0959537923336029
-0.011944573372602463
-0.1326414942741394
-0.10416077822446823
-0.01599910669028759
-0.06904414296150208
-0.08705166727304459
-0.06039886921644211
-0.11679445207118988
0.006229098420590162
-0.005474529229104519
-0.04579305648803711
-0.09650076925754547
-0.12242865562438965
-0.07608969509601593
-0.0011342712678015232
0.05880783498287201
0.08065501600503922
0.023165496066212654
0.03845520690083504
0.027340363711118698
0.05070436745882034
0.08248454332351685
0.06692765653133392
0.00126883655320853
0.048178207129240036
0.03067256137728691
-0.006057701073586941
0.046368714421987534
0.01933601312339306
-0.023238904774188995
-0.05220639705657959
0.01613703742623329
0.0251416377723217
0.03097313642501831
0.008491960354149342
0.05012901872396469
-0.0015774981584399939
0.049049440771341324
0.03423302248120308
-0.0398089736700058
0.06370646506547928
0.008197687566280365
-0.07683093845844269
-0.0482759103178978
-0.05704648047685623
0.017161063849925995
0.05769209936261177
-0.12310191988945007
-0.16138677299022675
-0.08742813766002655
0.04221424460411072
0.14816616475582123
0.08539260923862457
0.016712306067347527
0.0014429837465286255
-0.02995963953435421
0.08192597329616547
0.11135096102952957
0.11423859745264053
0.044191647320985794
-0.03772680461406708
0.02571769990026951
0.067095085978508
0.0118014020845294
0.030726507306098938
0.05974692851305008
0.03711675852537155
-0.03636001795530319
0.02360137738287449
0.026206398382782936
0.09063637256622314
0.11239343136548996
0.06330911070108414
0.12066056579351425
-0.09763669222593307
0.0013818716397508979
0.0056263236328959465
0.011935909278690815
-0.051156315952539444
-0.11271258443593979
-0.07184534519910812
-0.03738699108362198
0.01683162711560726
-0.0019281621789559722
0.0033637150190770626
-0.006633517798036337
-0.07722153514623642
-0.038879454135894775
0.05813126638531685
0.15338405966758728
0.10309262573719025
0.07085520774126053
0.06761950254440308
0.045290663838386536
0.058183979243040085
0.10147519409656525
0.05399315431714058
0.06636852771043777
-0.05826811492443085
0.03818272799253464
0.00331278913654387
0.03564722090959549
-0.06588487327098846
-0.13914449512958527
-0.05898718535900116
0.05589701980352402
0.011181548237800598
-0.018283668905496597
-0.05904436483979225
-0.03436651825904846
-0.080169677734375
-0.06677854061126709
0.09320919960737228
0.05685075744986534
0.10555116087198257
0.020388083532452583
0.04356737062335014
0.053636614233255386
0.03734154254198074
0.035296350717544556
0.029246672987937927
0.026387402787804604
0.03880353644490242
0.024604439735412598
0.004501245450228453
0.0028332180809229612
-0.0629364624619484
-0.008335682563483715
0.01992717571556568
0.08262365311384201
0.06494760513305664
0.016667060554027557
-0.012345139868557453
-0.02706095390021801
0.0310590248554945
-0.057594165205955505
0.004381942097097635
-0.025930089876055717
0.018928922712802887
-0.06920822709798813
-0.14380508661270142
0.0011529311304911971
0.05465668812394142
0.08367574959993362
0.01573772542178631
-0.016729330644011497
-0.08568266779184341
-0.06364581733942032
-0.017955906689167023
-1.024012453854084e-05
0.0860808715224266
0.08500928431749344
-0.03109714575111866
0.00371463131159544
0.08773639798164368
0.11787299811840057
0.07267826795578003
0.02584344893693924
-0.001682765199802816
-0.0033423174172639847
0.03770363703370094
0.007402333896607161
0.0978476032614708
0.07282553613185883
0.04824075847864151
-0.002788879908621311
0.05915874242782593
0.05260443314909935
-0.0391380675137043
0.12314724922180176
-0.0005611536325886846
0.04641725495457649
-0.0716773048043251
-0.03644512593746185
-0.004667028319090605
0.028836984187364578
0.08712545782327652
-0.021841848269104958
-0.003561487188562751
0.028640197589993477
-0.06485944241285324
0.049881573766469955
0.08187156170606613
0.05352271348237991
-0.012356092222034931
-0.018644006922841072
0.09414777904748917
0.027837153524160385
-0.022810498252511024
0.04851312190294266
-0.08099698275327682
0.02869783528149128
-0.019864944741129875
0.0864492878317833
-0.01986810937523842
-0.0967215821146965
0.12970243394374847
0.06873523443937302
0.06658393144607544
0.046014200896024704
-0.04989100992679596
0.010661736130714417
0.12571674585342407
0.08093353360891342
-0.055002979934215546
-0.01890982873737812
-0.05313398689031601
-0.031174257397651672
-0.07682204246520996
-0.06866225600242615
-0.11166664958000183
-0.11535345762968063
-0.09785296022891998
-0.04661997780203819
0.04461517557501793
0.02916380763053894
-0.012855946086347103
0.030276605859398842
0.09723102301359177
0.07523910701274872
-0.0029458843637257814
0.0295946653932333
0.05311337113380432
-0.015025452710688114
-0.056221798062324524
-0.004251523409038782
0.016028009355068207
0.004182420205324888
0.09361162036657333
0.048932354897260666
-0.03844242915511131
0.03879427909851074
-0.0725075751543045
-0.1321427971124649
-0.029558703303337097
0.025760957971215248
0.016890965402126312
-0.11517266929149628
0.03061021864414215
0.023599285632371902
-0.09028495848178864
-0.0023734858259558678
0.03852107375860214
0.040096212178468704
0.1584109663963318
0.008378271013498306
-0.05876047536730766
-0.0767204612493515
0.0528549924492836
0.09955654293298721
0.0326617993414402
-0.013998985290527344
-0.04231216758489609
0.0071620154194533825
-0.008760025724768639
0.00826551765203476
0.07480090111494064
-0.1298576295375824
0.0019165889825671911
-0.0006185401580296457
-0.0861295610666275
0.0007507311529479921
0.016271481290459633
-0.009273266419768333
-0.0042298706248402596
0.06681662797927856
0.05996859818696976
0.041911810636520386
0.046612340956926346
0.03933505341410637
0.03392288088798523
0.059244148433208466
-0.03603694960474968
-0.0016037789173424244
0.03129676729440689
-0.033176347613334656
-0.02311548963189125
0.038479775190353394
-0.004155831877142191
0.004389774054288864
0.027713075280189514
-0.02638053148984909
-0.04112354293465614
-0.0632387325167656
0.08030000329017639
-0.03672138229012489
-0.06056816130876541
0.02130862884223461
0.046493399888277054
-0.04614416882395744
0.0008785029640421271
-0.08747541904449463
0.13232316076755524
0.12337638437747955
0.06857115775346756
0.011677085421979427
-0.04994751885533333
0.024367181584239006
0.04702715575695038
-0.03715820610523224
0.02026543766260147
0.01141695212572813
0.016180776059627533
-0.09700233489274979
0.06400648504495621
0.03441648557782173
-0.044059205800294876
-0.035619232803583145
0.0468582957983017
0.047362592071294785
0.03346652537584305
0.0016421067994087934
-0.0011560404673218727
0.011856061406433582
-0.0034353977534919977
0.04096619412302971
0.04658568650484085
0.05896090716123581
0.017459124326705933
0.05350804701447487
0.1932111531496048
0.0158457662910223
0.01975833810865879
0.049408670514822006
-0.0031711861956864595
0.004555965308099985
0.076868437230587
0.05335583910346031
-0.06057407706975937
0.004111090674996376
-0.057608190923929214
-0.02605757676064968
0.00773320347070694
0.060197606682777405
-0.049046002328395844
-0.04102383181452751
0.019487814977765083
0.03777747228741646
-0.04916810616850853
0.06526079773902893
0.02023870311677456
0.06253233551979065
0.24516849219799042
0.0581122450530529
0.06103290617465973
-0.07235797494649887
0.0029425208922475576
0.07695557922124863
0.0025444938801229
-0.05854381248354912
0.0666058212518692
0.0029586595483124256
0.05034502595663071
0.08069872856140137
0.0683295875787735
-0.07337605953216553
-0.1019723191857338
-0.0609421543776989
0.003702955786138773
-0.07369883358478546
-0.002670187270268798
0.04451848194003105
-0.03719966486096382
0.006084062159061432
0.03655916824936867
-0.04488631337881088
0.055497415363788605
-0.11676763743162155
0.032431140542030334
-0.024368498474359512
-0.05235546454787254
-0.018170470371842384
0.029572749510407448
0.0005043466226197779
-0.07923176139593124
-0.012176861055195332
-0.031124383211135864
-0.15119187533855438
-0.03820965066552162
0.12548883259296417
0.0667162761092186
-0.048264920711517334
0.14078383147716522
-0.09045200049877167
-0.05014752969145775
0.0681523010134697
0.053972382098436356
-0.16537193953990936
0.02136063203215599
0.05141960084438324
-0.0965484231710434
-0.056143082678318024
-0.01457231491804123
-0.07433433830738068
-0.045065633952617645
-0.015627024695277214
-0.06303555518388748
-0.02834492363035679
-0.05599965155124664
0.018838897347450256
-0.035391684621572495
0.02735629864037037
-0.09569033980369568
0.000767283549066633
-0.03617207333445549
0.0597081258893013
0.06893846392631531
0.03331805393099785
0.039685964584350586
0.014077757485210896
-0.009187530726194382
0.07386443018913269
-0.028642164543271065
-0.012029655277729034
-0.055800583213567734
-0.039860405027866364
-0.008558959700167179
-0.10721313953399658
-0.06936176121234894
-0.0624048188328743
-0.014952410943806171
0.022424761205911636
-0.04126889631152153
-0.009805375710129738
0.015150354243814945
-0.039569467306137085
-0.0693686380982399
0.048558104783296585
-0.03997417539358139
-0.007030446548014879
-0.024996191263198853
0.11883220076560974
-0.08286426216363907
-0.12256505340337753
0.17046791315078735
-0.020825373008847237
0.0032693324610590935
-0.021360646933317184
-0.08652261644601822
-0.05952545627951622
-0.07355184108018875
0.10927517712116241
0.007957346737384796
0.02275756560266018
-0.053278904408216476
-0.13275118172168732
-0.028092818334698677
-0.09762922674417496
0.03587837889790535
0.02387435920536518
0.024759367108345032
-0.028043536469340324
0.013519429601728916
0.029229536652565002
0.037208497524261475
0.03503050282597542
0.025556808337569237
0.004262023139744997
0.020124921575188637
0.034643396735191345
-0.0700533539056778
-0.07111203670501709
0.018287207931280136
0.05401942506432533
-0.03641754016280174
-0.008978168480098248
0.014743410050868988
0.033333491533994675
0.051832977682352066
0.006226187106221914
0.007800793740898371
-0.062097735702991486
-0.17855361104011536
0.04077550023794174
0.03697052597999573
0.0694863349199295
0.04064017906785011
-0.0877833366394043
0.030199717730283737
-0.08178390562534332
-0.039729464799165726
-0.004991796799004078
-0.03865889087319374
-0.012816891074180603
0.03267960250377655
-0.016577845439314842
-0.1581297218799591
0.02147809974849224
0.07171256840229034
0.01811353489756584
-0.08859337866306305
-0.03368343040347099
0.05897940695285797
-0.018449241295456886
0.06985057145357132
0.09122142940759659
0.06303127110004425
0.03785322606563568
0.036385923624038696
-0.06451476365327835
-0.04715847969055176
0.09755712002515793
0.11433583498001099
-0.09432128816843033
-0.0957815870642662
-0.04051030054688454
0.015588942915201187
-0.03334692120552063
-0.031143171712756157
-0.011494885198771954
0.0486127994954586
0.06563939899206161
-0.09910665452480316
-0.12092380970716476
-0.06465993076562881
-0.1234489381313324
0.04685061424970627
0.010706163942813873
0.09797234833240509
0.03597617894411087
0.02748754806816578
-0.08592498302459717
0.20298421382904053
-0.015724075958132744
0.05986397713422775
0.1460491120815277
-0.04036634415388107
0.00599651038646698
-0.2676401734352112
-0.02783995121717453
0.030439205467700958
0.004428485874086618
-0.008815668523311615
-0.0499848946928978
-0.000786188174970448
-0.1449383646249771
-0.09101784229278564
0.027121754363179207
-0.017129497602581978
-0.013464674353599548
0.030263498425483704
0.06739950180053711
-0.032953739166259766
0.05301574617624283
0.110066257417202
0.048606958240270615
-0.01581905595958233
0.02793457731604576
-0.0035651803482323885
-0.04428780451416969
-0.0074757463298738
0.07497479021549225
0.029774323105812073
-0.03180695325136185
-0.08118458837270737
-0.038910117000341415
-0.13054272532463074
0.041129037737846375
0.057142265141010284
-0.006046338472515345
-0.09223131835460663
0.0598992221057415
0.03181705251336098
0.008255588822066784
0.13838109374046326
0.02530764415860176
0.1380329430103302
-0.028001179918646812
0.008971570990979671
-0.14108800888061523
-0.17193618416786194
0.038159873336553574
0.1112821027636528
0.08735276013612747
0.04655839875340462
0.028136538341641426
0.1059417575597763
-0.016301488503813744
0.07414489984512329
-0.06677580624818802
0.07129441946744919
0.10101120918989182
0.15288525819778442
0.08113492280244827
-0.05827590078115463
-0.12931758165359497
0.022932957857847214
0.11469154059886932
-0.026531297713518143
-0.05192091315984726
0.01143867988139391
0.04988722875714302
0.01940787397325039
0.04862627759575844
-0.05457936227321625
-0.043203264474868774
0.029566003009676933
-0.048299066722393036
-0.025443794205784798
0.16641642153263092
0.06470238417387009
-0.06612470000982285
-0.18191951513290405
-0.040565408766269684
0.03616999462246895
-0.05298202857375145
-0.02361949346959591
-0.05131496861577034
0.015987157821655273
0.06297241151332855
0.01579025760293007
-0.008052334189414978
-0.10975830256938934
-0.009462324902415276
-0.12195530533790588
-0.1414971798658371
0.06185495853424072
0.09945610165596008
0.03278590738773346
-0.11245148628950119
-0.005254597403109074
-0.04800892248749733
-0.09935810416936874
-0.16809917986392975
0.17958848178386688
0.020929764956235886
-0.09084028005599976
0.0038538703229278326
0.10008925944566727
-0.004857953637838364
-0.03814023360610008
0.07683522999286652
-0.03934621810913086
-0.07363655418157578
0.042069461196660995
0.011596430093050003
0.057812489569187164
0.08951182663440704
-0.05074358358979225
-0.0014518322423100471
-0.0332484096288681
0.0035411163698881865
-0.1449424773454666
-0.016298430040478706
0.09653561562299728
-0.0227982010692358
0.031170010566711426
-0.03591182455420494
0.0035657635889947414
0.0349653996527195
0.14305366575717926
0.15936778485774994
0.010582550428807735
0.008978020399808884
-0.038881007581949234
0.03595377504825592
-0.008270318619906902
-0.053669776767492294
0.06431315094232559
0.0062369005754590034
-0.044869378209114075
-0.03767183795571327
0.010885230265557766
0.0012892729137092829
0.05087361857295036
0.07734151184558868
0.006997860502451658
-0.03597158193588257
-0.08970291167497635
0.05982240289449692
-0.01648942567408085
-0.015237479470670223
0.10964272171258926
0.058321040123701096
0.03215041384100914
-0.09902659803628922
-0.02625226229429245
-0.1244785338640213
-0.03228900209069252
0.06699385493993759
0.020476208999753
-0.030842836946249008
-0.04990202561020851
-0.07307480275630951
-0.059968676418066025
-0.08471561968326569
-0.06730438023805618
-0.024084605276584625
0.06486530601978302
-0.0031867604702711105
0.008395940996706486
-0.06455258280038834
-0.07349871844053268
0.002726348116993904
0.0630844458937645
0.001498415949754417
-0.07014720141887665
0.10768140107393265
0.11732630431652069
0.03331415727734566
0.00474027544260025
0.041705746203660965
0.004304170608520508
-0.0220034159719944
0.024137655273079872
-0.02981291338801384
-0.0850672796368599
-0.05730802193284035
0.03761496767401695
-0.004049575887620449
-0.01242988370358944
0.024338960647583008
-0.012054326944053173
0.06900512427091599
0.038997747004032135
0.002118227072060108
-0.03854509815573692
-0.0521489754319191
0.02187812700867653
0.03356671705842018
0.09933750331401825
0.07877960801124573
0.10598160326480865
0.06950215250253677
-0.10047955065965652
0.03913455083966255
-0.00814647227525711
0.01572514697909355
0.09732286632061005
0.03961476311087608
0.035576559603214264
-0.15524809062480927
-0.00614960165694356
-0.045324064791202545
-0.031615398824214935
0.05527662858366966
-0.1028856411576271
0.07267970591783524
0.010677307844161987
0.01404501497745514
0.0351770780980587
-0.054533928632736206
-0.04404803737998009
-0.017117267474532127
0.03390480950474739
-0.09120297431945801
0.11263824254274368
0.01943652704358101
-0.027430716902017593
-0.03875758871436119
-0.009525744244456291
0.01678347773849964
-0.038976918905973434
0.04064060002565384
0.008003778755664825
0.03330400958657265
0.0830283910036087
-0.09990403056144714
0.02408917061984539
-0.05592789128422737
0.046738769859075546
0.027538258582353592
0.050414733588695526
-0.013534224592149258
-0.06519928574562073
-0.042465608566999435
-0.025095583871006966
0.004858906846493483
-0.015333604998886585
0.09335623681545258
-0.012605791911482811
-0.002244605915620923
0.016366800293326378
-0.15266497433185577
-0.03814000263810158
-0.008248698897659779
0.0624864362180233
-0.03273608535528183
-0.05459319055080414
0.21683292090892792
0.08967521041631699
-0.046821724623441696
0.07784388959407806
-0.0402020700275898
-0.023183153942227364
0.08198967576026917
0.07473178207874298
-0.04932333528995514
0.047631196677684784
0.03822185844182968
0.07724207639694214
-0.1276814341545105
-0.0885310098528862
0.01516953855752945
0.05965551361441612
0.09614144265651703
0.06210402026772499
-0.0316009521484375
0.04337288811802864
0.06319139897823334
-0.014263936318457127
-0.032895538955926895
0.020960725843906403
0.008367759175598621
-0.04629795625805855
-0.07550442218780518
-0.02054399996995926
0.03522283583879471
-0.00555124506354332
0.1298738420009613
0.048579420894384384
0.1861569583415985
0.07896815240383148
-0.05605943873524666
0.07559602707624435
0.018106434494256973
0.03353676572442055
0.05146584287285805
0.13359259068965912
-0.004437830299139023
-0.08392989635467529
-0.07527147978544235
-0.017280304804444313
0.04235520213842392
0.05628899857401848
0.09355920553207397
0.03235460817813873
-0.1395164579153061
0.009111203253269196
-0.04658583924174309
-0.107052743434906
0.026626111939549446
0.1460801213979721
0.16278798878192902
0.05000121146440506
-0.10622130334377289
-0.03778505697846413
-0.026672281324863434
0.05191079527139664
0.015489411540329456
0.04292468726634979
-0.14629067480564117
-0.03744720667600632
-0.006150633562356234
-0.02527030184864998
-0.026385247707366943
-0.04958437755703926
0.046140894293785095
-0.010121805593371391
-0.07490648329257965
-0.03502098470926285
0.09367065876722336
-0.015253933146595955
0.02481655776500702
0.10370835661888123
-0.017768096178770065
-0.022075822576880455
-0.1391923576593399
-0.019295981153845787
0.029673732817173004
0.03617885336279869
0.056616414338350296
-0.06562038511037827
-0.028040193021297455
-0.12753722071647644
0.08099126815795898
0.010489470325410366
-0.024419408291578293
0.1344831883907318
0.03674623370170593
-0.14211943745613098
-0.20854973793029785
-0.06647627055644989
-0.06313683092594147
-0.06286623328924179
-0.03174957260489464
-0.09834753721952438
0.05381801351904869
0.036440107971429825
-0.09603656828403473
0.07258901745080948
-0.02221299335360527
-0.03575800359249115
-0.07016649097204208
0.014406931586563587
-0.10428272932767868
0.07761610299348831
0.03931966796517372
0.03531936556100845
-0.03079123981297016
-0.014121666550636292
-0.06726139783859253
0.11638084799051285
0.1059550940990448
0.05501728504896164
0.03458023816347122
-0.025556083768606186
0.07870493829250336
-0.0457109659910202
0.00229672365821898
0.02398313768208027
0.014527994208037853
0.04873797297477722
-0.08005347102880478
-0.01971619203686714
0.002759963506832719
0.01522624772042036
0.09747237712144852
0.09162204712629318
0.06723574548959732
0.018562976270914078
-0.09067482501268387
0.006607993505895138
-0.001381800975650549
0.018872447311878204
0.06465262174606323
0.04980578273534775
-0.1996721625328064
-0.1691342443227768
-0.053463440388441086
-0.0603816956281662
0.08588351309299469
0.002181804273277521
0.01178744900971651
0.009561672806739807
0.07910343259572983
0.07012254744768143
-0.05709129199385643
-0.020867444574832916
-0.025940507650375366
0.06609285622835159
0.04634636268019676
-0.005232291761785746
-0.04891093447804451
-0.05188465863466263
-0.05385652184486389
0.002017450286075473
-0.029744483530521393
0.020917575806379318
0.024948840960860252
0.024635182693600655
0.03957571089267731
-0.025863101705908775
0.028237612918019295
-0.008959468454122543
-0.008550260215997696
0.003174479817971587
-0.0126327034085989
-0.021881548687815666
-0.019470343366265297
-0.002319288905709982
0.004677156452089548
0.09635268151760101
-0.031990159302949905
-0.011166227981448174
-0.05403443053364754
-0.004735603462904692
0.0777755081653595
0.02657245472073555
0.03731875494122505
-0.016325809061527252
-0.012483089230954647
-0.037743404507637024
0.07670258730649948
0.008945696987211704
-0.042414940893650055
0.07202700525522232
-0.0018702603410929441
-0.015651095658540726
-0.07015272229909897
-0.07186983525753021
-0.04064103215932846
-0.08873087167739868
0.003994670230895281
0.17107680439949036
-0.0384259931743145
-0.04315577447414398
-0.01887662708759308
-0.10601276904344559
-0.06406906992197037
-0.05193977802991867
0.0888291671872139
-0.05295424908399582
-0.04537363350391388
0.0702173113822937
0.08725020289421082
-6.505087367258966e-05
0.07805023342370987
0.02766561694443226
0.06508240103721619
-0.08921258896589279
0.03805136680603027
0.06965497136116028
0.06175399199128151
0.14095918834209442
0.10230248421430588
0.11904071271419525
-0.08136603236198425
0.013780253008008003
-0.01088470034301281
0.01969018392264843
0.03428081050515175
0.05147930607199669
-0.017751650884747505
0.005060059949755669
0.026561960577964783
-0.02660972811281681
-0.09992284327745438
0.08948531746864319
0.06313163042068481
0.05532578378915787
-0.04296443983912468
-0.0252048559486866
0.02185528166592121
-0.06711257249116898
-0.1384381204843521
0.0997435450553894
-0.003361219773069024
-0.044894758611917496
0.0443013571202755
-0.0578182116150856
0.057581331580877304
0.054291021078825
0.11030853539705276
-0.014547780156135559
-0.048660025000572205
0.02028859592974186
-0.09018749743700027
0.02941850572824478
0.029294466599822044
-0.08032478392124176
-0.029946817085146904
0.00288097420707345
0.0015642205253243446
-0.048187874257564545
-0.055346690118312836
0.0851481482386589
-0.023193832486867905
0.03438170254230499
-0.05345000699162483
0.03496544808149338
0.018628569319844246
0.031882673501968384
0.053692568093538284
0.039991214871406555
0.038479287177324295
-0.03491444140672684
-0.008680928498506546
0.0009949477389454842
0.014451669529080391
0.024160603061318398
0.00244748592376709
-0.01655721664428711
0.007908911444246769
-0.00342587660998106
-0.03686828538775444
-0.022635355591773987
0.08092516660690308
0.025725869461894035
0.031415943056344986
-0.03480912372469902
-0.005273568909615278
0.059865884482860565
0.06077500432729721
-0.030058111995458603
0.157283753156662
-0.06587393581867218
-0.054434046149253845
0.07230787724256516
-0.04042723774909973
-0.004111061338335276
0.021591834723949432
0.21927300095558167
0.019595544785261154
-0.05783500522375107
0.057081278413534164
-0.016501164063811302
-0.011758247390389442
-0.01844220981001854
-0.001516752759926021
-0.060247909277677536
-0.02657742239534855
-0.07646122574806213
0.0958554595708847
-0.012089232914149761
0.0004684410523623228
0.0053520058281719685
0.037042342126369476
-0.032108865678310394
-0.045106273144483566
-0.004091231152415276
-0.014996065758168697
0.03108925186097622
-0.03338165953755379
-0.01638967916369438
0.01578758843243122
0.011752269230782986
0.024664558470249176
0.012157517485320568
-0.01603769138455391
0.14262433350086212
0.012587874196469784
0.033566202968358994
-0.018781276419758797
-0.09022393077611923
-0.014893240295350552
-0.014434095472097397
-0.016533605754375458
0.01573263667523861
-0.038977235555648804
-0.025511713698506355
0.012139247730374336
-0.11462386697530746
-0.08762571960687637
0.1752840131521225
0.18033196032047272
-0.05051114782691002
0.05202426761388779
-0.002145232865586877
0.04709013178944588
0.1124371886253357
0.11286941915750504
-0.009027027525007725
-0.0779782086610794
0.015114085748791695
-0.0733567401766777
0.028308698907494545
-0.03784686699509621
-0.14331048727035522
-0.0013531517470255494
0.03132833167910576
-0.04271240159869194
-0.10704401135444641
-0.06053678318858147
-0.06816376000642776
-0.002676666248589754
0.02543775737285614
-0.07512553781270981
0.047518759965896606
0.030017415061593056
0.08271939307451248
0.08836257457733154
-0.017877263948321342
0.07588890939950943
-0.016086028888821602
0.01863735541701317
-0.0010820298921316862
0.03253164514899254
0.0016080064233392477
0.007890703156590462
-0.046500563621520996
-0.01376039907336235
-0.008550768718123436
0.015073423273861408
-9.239765495294705e-05
0.0007646433659829199
-0.041993338614702225
-0.036415185779333115
0.027688292786478996
-0.03347605839371681
-0.030752724036574364
0.012139723636209965
-0.04076414182782173
-0.004044670145958662
-0.015368534252047539
-0.002340461127460003
0.027725620195269585
0.015051516704261303
0.015364299528300762
-0.015593815594911575
-0.023812733590602875
-0.04990408197045326
-0.03038407489657402
0.008877256885170937
-0.04857737943530083
0.0003032493405044079
-0.030016547068953514
-0.0022439679596573114
-0.02476290613412857
0.025782397016882896
0.018244421109557152
-0.03545277938246727
0.008880594745278358
-0.01272149384021759
-0.04231788218021393
-0.024696042761206627
0.025421634316444397
-0.02711675688624382
-0.008715958334505558
-0.04727084934711456
0.0011657983995974064
0.045271262526512146
-0.01906902715563774
-0.03105819784104824
-0.02544204704463482
-0.026940204203128815
0.03178481385111809
-0.03346756100654602
-0.04863307252526283
-0.036246251314878464
0.004411202389746904
0.03643094375729561
0.037400633096694946
-0.01852044090628624
0.005571272689849138
-0.020144067704677582
0.004725070204585791
0.0018126192735508084
-0.011299040168523788
0.016401462256908417
-0.010268635116517544
-0.002677920740097761
-0.012461117468774319
-0.02239678055047989
-0.008327946066856384
-0.013223637826740742
0.013300510123372078
-0.04498950392007828
-0.03356428071856499
-0.005993120837956667
-0.04559636861085892
-0.0041763368062675
-0.03941056877374649
-0.0218034777790308
0.017713110893964767
