0.12372143566608429
0.14328216016292572
0.06368542462587357
-0.031233739107847214
0.001027610618621111
-0.18418508768081665
-0.10359811782836914
0.07094679772853851
-0.10515659302473068
-0.06221500411629677
-0.29563453793525696
-0.19892291724681854
-0.10319337248802185
-0.19548675417900085
0.03967297077178955
0.08962568640708923
0.13362230360507965
-0.07022791355848312
-0.017183326184749603
-0.016899967566132545
0.09887327253818512
0.001897357520647347
0.15217538177967072
0.13030880689620972
0.07132947444915771
0.028064241632819176
0.02774491161108017
-0.05962666869163513
0.030422404408454895
-0.08384419977664948
0.0057307961396873
-0.03169996663928032
-0.0782013013958931
-0.088111512362957
-0.07357770204544067
0.008963172324001789
-0.23741772770881653
0.045836664736270905
-0.27750152349472046
0.04558625444769859
0.06428854912519455
0.06284637004137039
-0.003967394586652517
-0.09014781564474106
-0.07471685111522675
0.04239187017083168
-0.03589511290192604
-0.027316544204950333
0.048330675810575485
0.14238359034061432
0.09158570319414139
0.12521959841251373
0.09663251787424088
0.08930695056915283
0.040655314922332764
-0.06890424340963364
-0.2197309136390686
0.12771905958652496
-0.21753786504268646
0.0901075154542923
-0.09002969413995743
0.04472607746720314
-0.20735515654087067
-0.10531286895275116
-0.2838795781135559
-0.19867059588432312
-0.24508270621299744
-0.07187217473983765
0.09942985326051712
0.07025773078203201
-0.09220941364765167
0.1027320846915245
0.12165987491607666
0.01990015059709549
0.1486915946006775
0.01398247480392456
0.1300579309463501
0.08514157682657242
0.07599097490310669
-0.009165900759398937
0.22899480164051056
-0.05591610446572304
-0.12026554346084595
-0.06693363189697266
-0.27651238441467285
0.2000560611486435
0.03753863275051117
0.06223113462328911
-0.11260434240102768
0.023989330977201462
-0.05212817341089249
-0.05764955282211304
-0.011673636734485626
-0.05212298035621643
0.0018191717099398375
-0.09408339858055115
-0.022717708721756935
-0.04345259070396423
-0.1527888923883438
0.23690518736839294
0.011091870255768299
0.08926526457071304
-0.16300053894519806
-0.17739109694957733
-0.042683329433202744
-0.039552539587020874
-0.0021027447655797005
0.04038918390870094
0.10962336510419846
0.10711807012557983
0.026046857237815857
0.09448277205228806
0.19474558532238007
-0.05966046825051308
-0.2615140378475189
-0.09789185225963593
-0.022406071424484253
-0.2728632390499115
-0.0479360856115818
-0.20684416592121124
-0.13230960071086884
-0.02143201418220997
-0.01004073116928339
0.06805716454982758
-0.09561121463775635
0.1352449357509613
0.0022094992455095053
-0.012374943122267723
-0.20827415585517883
0.1697198897600174
-0.08116966485977173
-0.09388620406389236
0.14953798055648804
-0.09998774528503418
0.05933463200926781
-0.289211243391037
-0.23772180080413818
0.09003239125013351
-0.06226169317960739
0.11705979704856873
0.13061203062534332
0.07590162754058838
0.04620056599378586
-0.002227581338956952
-0.12882699072360992
-0.0635433942079544
-0.05919506028294563
-0.08716093748807907
0.04998863488435745
0.06553247570991516
0.08942186832427979
0.05379421263933182
0.049359582364559174
-0.019395651295781136
-0.07515633851289749
-0.04762617126107216
0.09906120598316193
0.024315647780895233
-0.07937303185462952
0.07485806196928024
-0.05884373188018799
-0.010236496105790138
0.10296318680047989
-0.2370629608631134
0.1571412831544876
-0.23341792821884155
0.07323554158210754
0.0933801606297493
-0.1355861872434616
0.0734366849064827
-0.06753742694854736
0.16233517229557037
0.0860891044139862
0.16476550698280334
0.10830321907997131
-0.03175247833132744
0.10924800485372543
0.05393346771597862
-0.014967779628932476
-0.054003339260816574
-0.13533246517181396
-0.15597619116306305
0.02059883251786232
0.043421994894742966
-0.1510360985994339
0.24978135526180267
0.056121356785297394
-0.24505096673965454
0.06506989151239395
-0.009772889316082
-0.282022625207901
0.05614502727985382
-0.19117583334445953
-0.11210064589977264
0.04209529608488083
0.06040683761239052
0.016096649691462517
0.07670191675424576
-0.10846017301082611
-0.17921984195709229
-0.06426072865724564
-0.08204983174800873
0.013772531412541866
-0.056370195001363754
-0.11349301040172577
-0.20585118234157562
0.07101386785507202
-0.2156340628862381
-0.023845266550779343
-0.07822393625974655
0.1325247585773468
-0.09462028741836548
-0.22836975753307343
0.1546618640422821
0.12101788073778152
0.12652893364429474
0.15918652713298798
0.010350667871534824
0.09850598126649857
-0.10367612540721893
0.016679996624588966
0.04133132845163345
-0.14091143012046814
-0.2036835104227066
-0.027056682854890823
-0.30799776315689087
0.10394424200057983
-0.29620468616485596
-0.04918793961405754
-0.27196502685546875
0.11365557461977005
-0.13075032830238342
-0.11568264663219452
-0.10887040942907333
0.012530472129583359
-0.213636577129364
-0.04148845002055168
-0.016508767381310463
-0.04744900017976761
0.10995151102542877
0.07753423601388931
0.1429259330034256
0.10580651462078094
0.15898172557353973
-0.343379944562912
-0.11660825461149216
0.19724531471729279
-0.028836479410529137
0.17246520519256592
-0.1633281260728836
0.14728353917598724
0.01882352866232395
0.04271338880062103
0.1079864650964737
0.019383832812309265
-0.12486713379621506
-0.0413067601621151
0.15439696609973907
-0.13179877400398254
0.10319649428129196
-0.02333613857626915
0.014499886892735958
0.0897531658411026
-0.16144919395446777
0.1502392292022705
-0.013768283650279045
0.11022014170885086
0.12745879590511322
0.11282645165920258
-0.07919652760028839
-0.05229167267680168
-0.06104082986712456
-0.30951523780822754
-0.07822839915752411
-0.22481901943683624
0.04809432476758957
0.07805243134498596
-0.03914014995098114
-0.26943519711494446
-0.3473300337791443
-0.1116991862654686
0.1085096150636673
-0.0266201663762331
-0.05973963439464569
0.039024002850055695
-0.019409874454140663
-0.004402432590723038
-0.3006787896156311
0.06065959855914116
0.120224229991436
0.03232427313923836
0.1441127210855484
-0.007203532382845879
-0.15177424252033234
0.1358584761619568
0.08958935737609863
0.17217689752578735
0.07061702758073807
0.003946380224078894
-0.04468752443790436
0.05482494458556175
-0.18871505558490753
0.2289937436580658
-0.11356029659509659
0.145143061876297
-0.06246534362435341
0.07496211677789688
-0.008264416828751564
0.09504919499158859
0.0629958063364029
0.022360077127814293
0.009225823916494846
-0.008457948453724384
-0.06679902225732803
0.03698386624455452
-0.033005669713020325
-0.07731018960475922
0.15597541630268097
0.0659656673669815
-0.06991785019636154
0.04726804047822952
0.03270970284938812
0.17967166006565094
0.04991314560174942
0.025532839819788933
-0.14059625566005707
-0.013938434422016144
0.13598348200321198
-0.26457738876342773
0.01787710376083851
0.037710726261138916
-0.012344399467110634
-0.04808672517538071
-0.04921109229326248
-0.04822853207588196
0.07478996366262436
0.0699777603149414
-0.00866352766752243
-0.0776088535785675
0.11704329401254654
-0.11987936496734619
0.11115908622741699
0.05166203901171684
-0.15242613852024078
0.11491293460130692
0.06766633689403534
-0.009937063790857792
0.038215067237615585
-0.08487269282341003
0.10152029246091843
0.11726865917444229
-0.05047479271888733
-0.09886196255683899
-0.12705202400684357
0.16891099512577057
-0.004057801328599453
0.13338784873485565
-0.05791856348514557
0.028772540390491486
-0.1968155801296234
-0.09633035957813263
0.009124062955379486
-0.018511803820729256
0.010169659741222858
-0.20675808191299438
-0.05873174965381622
0.05791815370321274
-0.00650347163900733
0.08481169492006302
-0.15300951898097992
0.04763728752732277
-0.0615437850356102
-0.06727828085422516
-0.13450559973716736
-0.039794400334358215
-0.14547719061374664
0.17127417027950287
0.033205047249794006
-0.06696767359972
0.1696900725364685
-0.0774250254034996
-0.06071619689464569
0.18277858197689056
0.0945129469037056
0.07526519149541855
0.03361722454428673
0.077243372797966
0.0384366512298584
0.09119266271591187
-0.31063079833984375
0.11232273280620575
0.11135497689247131
-0.0966220423579216
0.05378382280468941
-0.013205290772020817
-0.03317785635590553
0.09125448763370514
0.054061803966760635
-0.005442666355520487
0.16172538697719574
-0.056749019771814346
-0.17928877472877502
0.16631653904914856
-0.045340243726968765
0.12808476388454437
-0.23358352482318878
-0.1134185865521431
-0.13153479993343353
0.1281173974275589
0.03573749586939812
-0.03757915273308754
-0.04177621379494667
0.13013480603694916
0.09634267538785934
-0.050141841173172
0.13795718550682068
0.05848393961787224
0.022936737164855003
-0.11992833763360977
0.03988305851817131
-0.10908214002847672
0.084568090736866
-0.13490602374076843
-0.20113718509674072
-0.044695425778627396
0.1187448650598526
0.08587401360273361
0.07851476967334747
-0.20249000191688538
0.02961411327123642
0.12698087096214294
-0.03183852508664131
-0.17739059031009674
0.11012586951255798
0.07551164925098419
-0.22691196203231812
0.08983065187931061
0.02713192254304886
-0.09024249762296677
-0.06720694899559021
0.05314101651310921
-0.14169584214687347
0.08751463145017624
0.00870765931904316
0.026044189929962158
-0.24027273058891296
0.09630081057548523
-0.10419577360153198
0.06445836275815964
-0.18813011050224304
-0.14999394118785858
0.09827259182929993
-0.16542260348796844
0.0752658024430275
0.02285359427332878
-0.06656454503536224
0.04833880811929703
-0.09923874586820602
0.12694798409938812
0.08888620883226395
-0.22432251274585724
0.04991253465414047
0.036349665373563766
0.06601464003324509
0.11085761338472366
-0.0561872199177742
-0.235945463180542
-0.09970054775476456
-0.1457969695329666
0.10778794437646866
0.030798444524407387
0.10486210137605667
-0.013699918985366821
0.06072469428181648
-0.05201531574130058
0.06557063013315201
0.1554075926542282
0.0840764194726944
0.010325663723051548
0.1436062902212143
0.08144243061542511
0.07402928173542023
0.12600009143352509
0.05106617137789726
0.0808645486831665
0.0683799609541893
0.11679257452487946
0.056724436581134796
0.18230359256267548
-0.0804653987288475
-0.006427662447094917
0.2611154317855835
-0.0859059989452362
-0.12512466311454773
-0.2530320882797241
0.11094814538955688
-0.1547217220067978
-0.08811245858669281
-0.34992673993110657
0.12679219245910645
-0.279620498418808
-0.15262064337730408
0.09699931740760803
-0.08004214614629745
-0.1173020526766777
0.0939430296421051
-0.09268180280923843
0.15562331676483154
0.0956544354557991
-0.005999480374157429
0.0230427123606205
0.04205378144979477
-0.05421586334705353
-0.015882324427366257
0.08050144463777542
0.098221056163311
0.1291460245847702
0.03863484039902687
-0.07726827263832092
-0.08025897294282913
0.09793513268232346
-0.0810943990945816
0.03667202591896057
0.03459561616182327
0.01421503908932209
-0.008243769407272339
0.03449912369251251
0.1260187029838562
-0.09615723788738251
0.041452646255493164
-0.060839638113975525
-0.058770641684532166
0.038761816918849945
-0.09800206869840622
-0.08220774680376053
0.11508467048406601
0.07994025945663452
0.01363007165491581
-0.07928979396820068
0.10897479206323624
-0.23187051713466644
-0.0163938719779253
-0.016269799321889877
-0.12543730437755585
-0.11860305070877075
-0.11022815853357315
0.10815421491861343
-0.22197282314300537
0.07010632753372192
0.061978552490472794
-0.059223610907793045
0.0938429981470108
-0.24191130697727203
-0.03552617132663727
-0.04099860042333603
-0.39056140184402466
-0.022390510886907578
0.07542546093463898
-0.04665301740169525
-0.03429349139332771
-0.0392022579908371
-0.09042621403932571
0.09395365417003632
0.04645513370633125
-0.0076668355613946915
0.09810422360897064
-0.03764916583895683
0.19462989270687103
0.04885139316320419
-0.18703049421310425
0.1269775927066803
0.1453201025724411
0.06694766879081726
0.023885268718004227
-0.1750103384256363
-0.021441109478473663
0.1321350336074829
0.09110336005687714
-0.03368040546774864
-0.0955529510974884
-0.108486607670784
0.09928365051746368
-0.11125607043504715
0.028890514746308327
0.006125601939857006
0.0341283418238163
-0.14619340002536774
0.09471144527196884
0.07257872819900513
-0.25986236333847046
0.04860204458236694
0.1437128633260727
-0.19173571467399597
0.13934536278247833
-0.04823725298047066
0.0007438341854140162
0.14020922780036926
0.08671662956476212
0.10683789849281311
0.03676096722483635
-0.1318603903055191
-0.033862631767988205
-0.09933628141880035
0.10744717717170715
-0.05993546172976494
-0.009295032359659672
0.051461078226566315
-0.12248589843511581
-0.0311361625790596
-0.035576410591602325
0.12065187096595764
-0.03351614624261856
-0.08647971600294113
-0.24638254940509796
0.13105259835720062
0.13185624778270721
-0.06426217406988144
0.040505681186914444
-0.03331630304455757
-0.0461152046918869
-0.2068379670381546
-0.08090636134147644
-0.038788262754678726
0.070399709045887
-0.0738833099603653
-0.16248685121536255
0.12508010864257812
0.05601102113723755
0.015803737565875053
-0.031486354768276215
-0.16193559765815735
-0.16265222430229187
0.0983838215470314
-0.21156053245067596
0.12152823805809021
-0.14105404913425446
0.07330965250730515
0.19072416424751282
-0.019024675711989403
-0.047756221145391464
